#include "temp_predictor.h"

const float weight_0[256] = {
    0.066112f, -0.031396f, 0.139112f, 0.233511f, 0.282546f, -0.025355f, 0.133763f, 0.196517f,
    -0.089249f, 0.007834f, 0.207142f, -0.015854f, 0.034896f, -0.037632f, -0.022356f, 0.109553f,
    0.150059f, 0.195140f, -0.126228f, 0.159449f, 0.089202f, 0.145303f, -0.156525f, -0.167655f,
    0.053125f, 0.101222f, 0.033392f, 0.077825f, -0.146837f, 0.072395f, -0.000481f, -0.025156f,
    -0.006990f, -0.058196f, -0.173956f, 0.060815f, 0.107183f, 0.038212f, 0.042921f, 0.045090f,
    0.004023f, 0.055296f, 0.125020f, 0.118118f, -0.065065f, -0.037744f, 0.099331f, -0.035742f,
    0.226491f, -0.105015f, -0.040298f, 0.142820f, -0.150388f, -0.065238f, 0.225358f, -0.116052f,
    -0.034426f, -0.022435f, 0.265408f, -0.051120f, 0.077621f, -0.130136f, -0.104341f, 0.016838f,
    -0.058559f, -0.119088f, -0.041588f, 0.090403f, 0.137343f, -0.016897f, -0.095029f, 0.052908f,
    0.078803f, -0.143462f, 0.163914f, -0.069752f, 0.118954f, 0.174349f, 0.162370f, 0.088022f,
    -0.043243f, 0.167746f, 0.002158f, 0.150749f, 0.022161f, 0.281040f, -0.005373f, -0.120188f,
    0.144645f, 0.084701f, 0.043813f, 0.265765f, -0.157225f, 0.047531f, -0.119255f, -0.131364f,
    0.018682f, -0.136889f, -0.154210f, -0.071657f, 0.004628f, 0.205009f, 0.038142f, 0.164372f,
    0.201016f, -0.162503f, 0.015818f, 0.044613f, 0.123714f, -0.024042f, 0.182126f, 0.148676f,
    0.011275f, 0.008004f, -0.065500f, -0.046294f, -0.168639f, 0.094423f, 0.135418f, -0.085077f,
    0.147627f, -0.243672f, 0.029796f, 0.222179f, 0.082146f, -0.101991f, -0.197426f, 0.194796f,
    -0.057110f, 0.209297f, -0.106507f, -0.163650f, 0.184944f, 0.142672f, 0.195983f, 0.117023f,
    0.102571f, 0.248664f, -0.141451f, -0.264967f, -0.118514f, 0.104821f, -0.029732f, -0.097089f,
    -0.051415f, -0.199028f, 0.277158f, -0.064903f, 0.060515f, -0.296815f, -0.133866f, -0.041861f,
    0.198148f, 0.143560f, 0.092670f, 0.191265f, 0.182896f, -0.105859f, 0.007676f, -0.071796f,
    -0.118813f, 0.236426f, -0.005635f, -0.127953f, 0.076868f, -0.119093f, -0.215161f, 0.161396f,
    -0.118723f, -0.030900f, -0.226546f, -0.155853f, 0.143853f, 0.004225f, 0.161395f, -0.120929f,
    -0.164970f, 0.073786f, 0.108232f, -0.204739f, 0.092298f, 0.158301f, -0.145752f, -0.062668f,
    0.230583f, 0.017896f, 0.196979f, 0.139175f, -0.046030f, 0.048539f, -0.079387f, 0.149706f,
    0.075522f, 0.099830f, -0.036526f, 0.127328f, 0.066421f, -0.155796f, 0.047201f, -0.029983f,
    0.041675f, -0.018902f, 0.179182f, 0.049740f, 0.144257f, -0.036954f, -0.051426f, -0.103264f,
    -0.064501f, -0.025860f, -0.073787f, 0.032131f, 0.041941f, 0.054491f, 0.097296f, -0.122080f,
    0.141183f, -0.008800f, -0.189951f, -0.069662f, -0.085917f, -0.088092f, 0.087902f, 0.002688f,
    -0.030425f, -0.087333f, 0.089034f, 0.011646f, 0.140190f, 0.209086f, 0.009324f, 0.082620f,
    0.054351f, 0.041441f, 0.042799f, -0.026328f, 0.105249f, -0.054032f, -0.036816f, -0.000529f,
    -0.038283f, -0.060261f, 0.019185f, 0.040853f, -0.160349f, -0.105560f, 0.195462f, -0.012959f,
    0.198899f, -0.164128f, 0.233183f, 0.045303f, -0.149055f, -0.055159f, -0.330538f, 0.023088f
};

const float weight_1[16384] = {
    -0.019330f, 0.039376f, -0.010802f, -0.118681f, 0.004527f, -0.021854f, 0.006559f, -0.076848f,
    0.073432f, -0.040271f, -0.095141f, 0.078291f, 0.017841f, -0.075637f, 0.088011f, 0.067680f,
    0.083379f, -0.105352f, 0.115725f, -0.043699f, 0.066462f, 0.002149f, -0.076234f, 0.011391f,
    -0.000104f, 0.031279f, 0.090534f, 0.121910f, 0.172074f, 0.076844f, 0.044015f, -0.076090f,
    0.008459f, 0.001531f, 0.081500f, -0.075175f, -0.072323f, -0.038711f, 0.049292f, 0.005973f,
    0.021667f, -0.016226f, -0.156126f, 0.092324f, 0.027628f, 0.007461f, -0.137684f, -0.130846f,
    -0.118531f, 0.088275f, 0.083271f, 0.064639f, 0.099578f, 0.009147f, -0.039765f, 0.000381f,
    -0.100878f, -0.008933f, -0.011919f, 0.120485f, -0.024860f, 0.056744f, -0.050650f, -0.016820f,
    -0.148661f, 0.042856f, 0.035254f, -0.004735f, -0.093262f, 0.033486f, 0.060116f, -0.025906f,
    0.122796f, -0.077910f, -0.043522f, 0.095904f, -0.055640f, -0.141284f, 0.004330f, 0.039305f,
    -0.019159f, 0.049196f, 0.012260f, -0.104103f, -0.002011f, -0.062058f, 0.070799f, -0.071680f,
    -0.022053f, -0.017232f, 0.048510f, 0.024384f, -0.001460f, -0.054284f, 0.080911f, 0.058012f,
    -0.017604f, -0.009718f, 0.030817f, -0.042694f, 0.088053f, -0.027659f, 0.028098f, 0.195005f,
    0.036182f, -0.077582f, -0.026271f, 0.028436f, 0.074479f, 0.052267f, -0.029553f, 0.181121f,
    -0.046017f, 0.038546f, 0.046012f, 0.177543f, 0.056467f, 0.013700f, -0.047144f, 0.018941f,
    -0.101263f, -0.043739f, 0.024593f, 0.002453f, 0.066544f, -0.021506f, -0.132457f, -0.074047f,
    -0.137375f, 0.204987f, 0.022017f, -0.024648f, 0.051409f, 0.017140f, -0.033753f, 0.085641f,
    0.085986f, 0.059404f, -0.168860f, -0.051307f, -0.020979f, -0.043220f, 0.068729f, -0.021410f,
    0.018355f, -0.042969f, 0.016894f, 0.018905f, -0.015807f, -0.012222f, -0.046790f, -0.009643f,
    0.148449f, 0.047526f, -0.067522f, 0.004779f, 0.051842f, 0.025663f, 0.078699f, 0.077851f,
    -0.056069f, -0.033117f, -0.076423f, 0.027213f, 0.009411f, 0.046924f, -0.036344f, 0.146170f,
    -0.149669f, -0.138428f, 0.005695f, 0.043401f, -0.039621f, 0.046038f, -0.005315f, -0.059956f,
    0.001972f, 0.171274f, -0.072773f, -0.094917f, 0.014037f, -0.011547f, 0.016526f, -0.033180f,
    0.072020f, 0.145664f, 0.114991f, 0.012537f, 0.056883f, -0.077574f, 0.063219f, 0.075308f,
    0.036173f, 0.005562f, -0.001073f, -0.033806f, -0.004014f, 0.126258f, 0.068672f, 0.028463f,
    0.068003f, 0.000361f, 0.004690f, -0.089371f, 0.046536f, 0.006299f, 0.053810f, -0.006834f,
    -0.037284f, 0.052974f, -0.048591f, -0.027762f, -0.020061f, -0.054413f, -0.033025f, 0.010048f,
    0.012647f, -0.068110f, 0.075028f, -0.063652f, -0.016883f, 0.018512f, -0.083813f, -0.019371f,
    -0.015182f, 0.014824f, -0.065029f, 0.065403f, -0.058696f, 0.020362f, -0.068117f, 0.025105f,
    0.008903f, -0.085994f, -0.007799f, 0.035231f, 0.176934f, 0.039319f, -0.089250f, 0.043143f,
    0.003798f, 0.016340f, 0.030989f, 0.096094f, 0.039299f, -0.054575f, -0.048126f, 0.080291f,
    -0.063365f, -0.020114f, 0.024033f, -0.052343f, 0.011785f, 0.069113f, 0.045422f, 0.061041f,
    0.008414f, -0.094293f, -0.078704f, -0.081348f, 0.051791f, -0.062802f, -0.039473f, 0.021221f,
    -0.004952f, 0.043561f, -0.107028f, -0.130545f, 0.008205f, 0.033851f, -0.018948f, -0.034606f,
    -0.003847f, -0.052135f, 0.040793f, 0.046164f, -0.005284f, 0.032125f, 0.035059f, -0.058167f,
    -0.109038f, 0.087612f, 0.083630f, 0.074761f, 0.047461f, 0.030306f, -0.009161f, -0.014992f,
    0.053627f, -0.007961f, -0.105483f, 0.025988f, -0.021683f, -0.103632f, 0.064701f, -0.111754f,
    0.069536f, 0.023525f, -0.084341f, -0.040674f, -0.021004f, 0.080631f, -0.008145f, 0.146620f,
    0.069734f, 0.009043f, -0.031517f, -0.046419f, -0.100861f, 0.024304f, -0.111923f, -0.005397f,
    0.067103f, 0.062469f, -0.009672f, -0.083817f, -0.068606f, -0.031516f, 0.024642f, 0.038455f,
    -0.096811f, 0.051018f, 0.029587f, 0.000902f, 0.035396f, -0.072114f, -0.000720f, 0.057590f,
    -0.051356f, -0.076996f, 0.039769f, 0.022415f, 0.028946f, 0.033306f, -0.038194f, -0.085511f,
    -0.015435f, 0.006891f, 0.009343f, -0.043853f, 0.049647f, 0.015870f, -0.072198f, -0.009783f,
    -0.010680f, -0.006360f, 0.020941f, 0.039360f, -0.057163f, -0.055603f, 0.058779f, -0.039131f,
    -0.001850f, 0.138129f, 0.041745f, 0.162176f, -0.042108f, -0.050330f, -0.000828f, -0.041159f,
    -0.017356f, 0.133049f, 0.008556f, -0.136724f, 0.003380f, 0.053934f, -0.112061f, 0.065600f,
    0.138482f, 0.019887f, -0.019476f, 0.031893f, -0.072125f, 0.051665f, 0.067189f, 0.165166f,
    0.007945f, -0.028396f, -0.134816f, -0.048947f, -0.000764f, 0.037597f, -0.124882f, 0.004510f,
    -0.018143f, 0.052689f, -0.014506f, 0.072917f, -0.019638f, 0.038037f, 0.055799f, 0.018373f,
    0.005974f, 0.078692f, 0.031360f, -0.012574f, 0.050370f, 0.081871f, -0.147643f, 0.114083f,
    0.031115f, -0.016359f, 0.130552f, -0.074665f, -0.006923f, -0.063738f, 0.043221f, -0.121338f,
    0.020084f, -0.134935f, 0.070705f, -0.097242f, 0.056960f, 0.113341f, 0.082446f, -0.037158f,
    -0.017655f, -0.097593f, 0.046971f, -0.032786f, -0.000959f, -0.133242f, -0.045563f, -0.022956f,
    -0.040817f, 0.014388f, 0.105229f, -0.156696f, 0.036825f, -0.017128f, 0.048217f, -0.066849f,
    -0.005272f, -0.070374f, -0.010787f, -0.058576f, -0.031416f, -0.048151f, -0.072482f, 0.039332f,
    0.035001f, 0.048228f, 0.049077f, 0.032447f, -0.058630f, 0.012794f, -0.013170f, 0.038895f,
    -0.101298f, -0.020231f, -0.091088f, 0.040426f, -0.013952f, 0.054011f, -0.176475f, 0.027652f,
    -0.014347f, 0.027699f, -0.046421f, -0.035004f, -0.040881f, -0.108782f, -0.112115f, -0.032595f,
    -0.060498f, -0.029632f, -0.021421f, 0.031137f, 0.000392f, -0.137005f, 0.006901f, -0.049867f,
    -0.047845f, 0.032239f, 0.032321f, 0.002017f, -0.040712f, 0.013114f, 0.011065f, 0.006725f,
    -0.023603f, -0.040030f, 0.080674f, -0.105897f, -0.074795f, 0.043845f, 0.032404f, -0.143477f,
    0.006717f, 0.020143f, -0.122059f, 0.005896f, -0.043473f, 0.099080f, -0.034652f, -0.056031f,
    0.041686f, 0.147549f, 0.040043f, -0.079204f, -0.081609f, 0.101619f, -0.006765f, -0.055153f,
    0.039169f, 0.071168f, -0.072660f, -0.002618f, -0.082733f, -0.024937f, -0.034188f, -0.127470f,
    -0.022074f, 0.036503f, 0.080985f, -0.046093f, -0.104079f, 0.005894f, -0.036036f, -0.021684f,
    0.058721f, 0.034652f, 0.003451f, 0.105509f, -0.056701f, -0.011900f, -0.104900f, -0.025503f,
    -0.022244f, -0.053822f, 0.043802f, -0.050482f, -0.069966f, -0.010461f, 0.145936f, -0.130513f,
    -0.097461f, 0.020987f, 0.000680f, 0.057950f, 0.072205f, -0.002371f, 0.131808f, 0.019482f,
    -0.023165f, 0.068739f, -0.133027f, 0.004112f, 0.029516f, 0.123879f, 0.060201f, 0.121586f,
    -0.078912f, 0.008873f, 0.035260f, 0.074842f, 0.004055f, -0.074034f, -0.063766f, -0.015970f,
    -0.033070f, 0.180647f, 0.014748f, 0.042297f, -0.011908f, 0.079746f, -0.039452f, 0.069396f,
    -0.070871f, -0.002991f, -0.061799f, 0.022694f, -0.009294f, 0.035667f, -0.074536f, -0.005968f,
    0.110242f, -0.029723f, -0.023201f, -0.020944f, -0.049544f, -0.007829f, -0.001489f, -0.045859f,
    0.075476f, 0.074019f, -0.141138f, 0.172581f, -0.120322f, -0.050860f, 0.072902f, 0.020315f,
    0.104209f, 0.089093f, -0.016897f, -0.028554f, 0.026739f, 0.046933f, -0.002781f, 0.001994f,
    -0.064507f, -0.013002f, 0.055592f, 0.044121f, 0.024243f, -0.061901f, -0.069651f, -0.021162f,
    -0.188281f, -0.015446f, 0.017658f, -0.132641f, -0.071088f, 0.037365f, 0.010523f, 0.103111f,
    -0.013867f, 0.044385f, -0.050042f, 0.010225f, 0.063096f, -0.095766f, 0.005357f, 0.004880f,
    -0.161014f, -0.014544f, 0.035550f, -0.002480f, 0.004820f, 0.065880f, -0.107085f, -0.031604f,
    -0.089646f, -0.004976f, -0.001405f, -0.003315f, -0.065193f, -0.043739f, -0.025760f, -0.082550f,
    0.048566f, -0.067742f, 0.039680f, -0.024057f, 0.097678f, 0.009591f, 0.085473f, 0.040754f,
    -0.027366f, 0.085419f, -0.028063f, -0.073006f, 0.108036f, -0.030995f, -0.112563f, -0.003101f,
    0.132766f, 0.112140f, 0.120660f, -0.061852f, -0.055516f, 0.007472f, -0.000101f, -0.041276f,
    -0.017808f, -0.105567f, -0.011455f, 0.012669f, -0.041028f, -0.028167f, 0.053848f, 0.076706f,
    0.074064f, 0.099396f, 0.079238f, 0.002635f, -0.075385f, 0.001375f, 0.014255f, 0.035147f,
    -0.042209f, -0.081261f, -0.023695f, -0.034541f, 0.031281f, 0.075129f, -0.027246f, 0.101136f,
    0.021469f, 0.022231f, -0.000212f, -0.029922f, 0.024086f, 0.116237f, 0.018198f, 0.097442f,
    -0.018032f, -0.054099f, 0.024090f, -0.011316f, -0.058346f, -0.063347f, -0.102801f, 0.048150f,
    0.053765f, -0.025012f, 0.047969f, -0.015780f, 0.053719f, 0.053488f, 0.011487f, 0.007596f,
    -0.064200f, 0.049919f, 0.089305f, -0.057686f, 0.039074f, -0.000222f, -0.043994f, -0.099888f,
    0.071732f, -0.025188f, 0.048094f, 0.075932f, -0.018175f, 0.050850f, -0.081619f, 0.070928f,
    0.095061f, 0.054951f, 0.093976f, 0.019867f, 0.077348f, 0.059730f, 0.098062f, 0.035699f,
    -0.014905f, -0.054239f, -0.070666f, -0.008183f, 0.001509f, -0.118637f, -0.004533f, -0.025193f,
    -0.020913f, -0.000562f, -0.057619f, 0.043585f, -0.070606f, -0.016361f, -0.115611f, 0.002412f,
    0.004148f, 0.084821f, 0.040294f, 0.049015f, 0.057001f, 0.130278f, 0.068800f, 0.007381f,
    -0.044497f, 0.079430f, -0.089648f, -0.025602f, 0.161081f, -0.043615f, 0.047323f, -0.032319f,
    -0.030884f, 0.079901f, 0.043156f, 0.081249f, -0.014249f, 0.161767f, 0.013158f, 0.040964f,
    0.086638f, 0.023584f, 0.065820f, 0.078552f, -0.019922f, -0.186701f, 0.017733f, 0.100274f,
    -0.024156f, -0.000115f, 0.071803f, 0.102488f, -0.057660f, 0.108502f, 0.089770f, -0.035245f,
    0.018084f, -0.037146f, -0.021324f, 0.040393f, 0.176101f, 0.073759f, 0.038969f, 0.009762f,
    0.012816f, -0.053280f, 0.071162f, -0.026522f, 0.067031f, 0.097917f, 0.054292f, 0.068054f,
    -0.031303f, -0.007891f, 0.008644f, -0.062653f, -0.113712f, -0.027184f, -0.046434f, 0.016818f,
    0.014933f, -0.017263f, 0.039537f, 0.088347f, 0.113282f, -0.018176f, 0.081246f, -0.027450f,
    -0.055543f, -0.020993f, 0.038783f, -0.036407f, 0.071848f, -0.072256f, -0.063426f, -0.038053f,
    0.070692f, 0.084292f, -0.024318f, 0.079409f, -0.079073f, 0.051673f, 0.170370f, -0.016914f,
    -0.096710f, -0.010070f, -0.055522f, 0.017660f, 0.090221f, -0.043060f, 0.085071f, 0.162121f,
    -0.071087f, -0.108950f, -0.035415f, -0.040787f, 0.052625f, 0.040128f, 0.059874f, 0.008093f,
    -0.015109f, -0.070532f, 0.050413f, -0.036408f, -0.029599f, 0.149948f, 0.098019f, 0.079129f,
    0.064390f, -0.152357f, 0.027049f, 0.037436f, 0.065368f, -0.082704f, 0.008691f, 0.100790f,
    -0.049641f, -0.046360f, 0.113875f, -0.071452f, 0.103316f, 0.107008f, 0.019791f, 0.069802f,
    0.011896f, -0.008227f, 0.012419f, 0.006145f, 0.143607f, 0.007498f, -0.134145f, -0.065099f,
    0.040492f, -0.020011f, 0.092419f, 0.042461f, 0.127869f, 0.045026f, -0.001521f, -0.048122f,
    0.020271f, -0.019926f, -0.135137f, -0.006331f, -0.043114f, 0.096839f, -0.001608f, -0.130166f,
    -0.106074f, 0.140504f, -0.056207f, -0.021467f, -0.051130f, 0.109493f, -0.018123f, -0.093684f,
    -0.017945f, -0.144025f, 0.049573f, 0.009377f, 0.034226f, 0.033819f, -0.117747f, 0.021131f,
    -0.018608f, 0.101534f, 0.004323f, -0.052601f, 0.050153f, 0.046460f, 0.020289f, -0.140175f,
    0.000779f, 0.024265f, -0.008265f, 0.048711f, 0.054906f, -0.059809f, 0.140923f, -0.061585f,
    0.017028f, -0.023892f, -0.055842f, -0.067118f, -0.069007f, 0.062557f, -0.063341f, 0.036333f,
    0.054135f, 0.024161f, -0.033351f, -0.072019f, -0.051957f, -0.109166f, 0.070506f, 0.056937f,
    -0.102058f, -0.012244f, 0.024102f, 0.037859f, -0.010762f, -0.042167f, 0.022128f, 0.142489f,
    0.058648f, -0.007412f, -0.126580f, 0.037041f, -0.032226f, 0.128889f, 0.003280f, 0.069321f,
    0.065655f, 0.030296f, -0.010116f, 0.016057f, 0.188082f, -0.102489f, 0.065335f, 0.155245f,
    0.124168f, 0.047560f, -0.009179f, -0.061745f, 0.037928f, 0.104032f, 0.039705f, 0.026920f,
    0.042328f, -0.058587f, -0.019162f, 0.163486f, -0.034623f, 0.072866f, 0.096384f, 0.023894f,
    0.042950f, -0.063992f, 0.012196f, 0.069296f, 0.010923f, -0.182994f, 0.055128f, 0.000386f,
    -0.109384f, -0.082382f, -0.075253f, -0.066422f, -0.034986f, -0.009360f, 0.039419f, -0.040884f,
    0.064810f, 0.039123f, 0.194991f, 0.007191f, 0.107605f, 0.095617f, 0.091820f, 0.060820f,
    -0.011717f, -0.039118f, 0.056317f, -0.055895f, 0.048557f, -0.020852f, 0.120467f, -0.012826f,
    0.063237f, -0.019818f, 0.012746f, -0.027989f, -0.008977f, -0.135705f, -0.135719f, -0.083875f,
    -0.125541f, -0.121207f, 0.156630f, -0.119608f, -0.085397f, 0.062148f, 0.012540f, -0.066436f,
    0.071784f, -0.064859f, -0.026527f, -0.028708f, -0.003929f, -0.000221f, -0.113590f, -0.078903f,
    0.086093f, 0.149707f, 0.103033f, 0.088329f, -0.079637f, 0.007881f, 0.003966f, 0.039274f,
    -0.020425f, 0.054249f, -0.051110f, 0.058288f, -0.031723f, 0.165335f, -0.029916f, -0.026553f,
    0.017711f, 0.031646f, -0.117925f, 0.062159f, -0.072573f, 0.015628f, 0.116277f, 0.089589f,
    0.011547f, -0.066825f, -0.048096f, -0.192737f, -0.126075f, -0.114359f, 0.038611f, -0.038216f,
    0.008136f, -0.103837f, 0.009923f, 0.023478f, -0.004514f, -0.109032f, 0.048258f, 0.186591f,
    -0.072418f, -0.004261f, -0.087499f, 0.033440f, 0.044538f, -0.083591f, 0.004178f, -0.062754f,
    -0.104482f, 0.027869f, -0.043840f, -0.029839f, -0.107703f, 0.045724f, -0.084897f, -0.139457f,
    0.083394f, -0.036369f, -0.022774f, -0.024375f, 0.137145f, -0.050012f, 0.098583f, -0.010320f,
    -0.013121f, 0.110223f, -0.005004f, -0.029989f, 0.014370f, 0.044339f, -0.070795f, -0.098771f,
    -0.048454f, -0.084573f, -0.011352f, -0.015731f, -0.035740f, 0.115454f, -0.079930f, -0.126855f,
    -0.011442f, -0.040317f, -0.096761f, 0.029107f, -0.064998f, 0.043105f, 0.090505f, 0.023152f,
    0.069998f, -0.066785f, -0.188485f, -0.042019f, 0.039700f, 0.004562f, 0.051510f, 0.008103f,
    0.081137f, -0.020924f, 0.046655f, -0.065406f, -0.028522f, 0.086018f, 0.024439f, 0.004569f,
    -0.105430f, 0.133278f, 0.021034f, 0.091148f, -0.043778f, -0.055880f, -0.015755f, 0.072253f,
    -0.191440f, 0.013411f, -0.031154f, -0.049371f, 0.005159f, 0.005556f, 0.015713f, -0.056219f,
    0.051851f, 0.055307f, -0.052154f, -0.134156f, 0.012147f, 0.051027f, -0.198229f, -0.194898f,
    -0.077452f, 0.108642f, -0.054049f, 0.009455f, -0.042851f, -0.079783f, -0.044993f, -0.160099f,
    0.041483f, -0.008734f, 0.087572f, -0.065234f, 0.126501f, -0.040677f, -0.054800f, 0.003921f,
    0.061151f, -0.041420f, 0.063333f, -0.044735f, 0.013559f, 0.004195f, 0.031753f, 0.014407f,
    0.017401f, -0.009606f, -0.047022f, 0.024415f, -0.042661f, -0.046605f, -0.003479f, -0.139486f,
    0.102431f, -0.103992f, -0.032341f, 0.067490f, 0.090556f, 0.022920f, -0.047303f, 0.086251f,
    -0.031020f, 0.044185f, 0.105835f, -0.051737f, 0.063241f, -0.064638f, 0.009953f, -0.070862f,
    -0.078669f, -0.016931f, 0.005324f, -0.020460f, -0.124473f, -0.014640f, -0.019528f, -0.113221f,
    -0.132746f, -0.011340f, 0.000987f, -0.040245f, 0.059873f, 0.043386f, 0.023005f, -0.061716f,
    -0.099028f, -0.011513f, -0.081607f, -0.146842f, -0.023957f, 0.047711f, -0.077593f, -0.201239f,
    -0.064600f, 0.004897f, -0.100833f, -0.051945f, 0.048808f, -0.028364f, 0.005540f, 0.023273f,
    0.082855f, 0.037418f, -0.079038f, -0.022642f, -0.130805f, 0.053411f, -0.034557f, -0.050999f,
    0.050975f, 0.061361f, -0.045146f, -0.030756f, -0.018981f, -0.062435f, -0.081869f, 0.024402f,
    0.092170f, -0.072619f, -0.070754f, -0.047374f, -0.154417f, -0.015564f, -0.006501f, -0.070053f,
    0.125402f, 0.102767f, -0.002120f, 0.011141f, 0.044072f, -0.003263f, -0.022165f, -0.124865f,
    -0.107837f, -0.033730f, -0.024875f, 0.007040f, 0.021869f, 0.006931f, 0.164095f, -0.182314f,
    0.031753f, -0.037123f, -0.063313f, -0.015197f, -0.065751f, -0.069075f, -0.112327f, -0.037297f,
    0.008101f, 0.181429f, 0.024199f, -0.071754f, 0.074651f, -0.034293f, -0.048579f, 0.008315f,
    -0.011714f, -0.056254f, 0.028284f, -0.106550f, 0.033588f, 0.109776f, 0.045030f, -0.029231f,
    0.068079f, -0.031129f, 0.019772f, -0.053915f, 0.126130f, 0.095902f, -0.004244f, 0.023853f,
    -0.041939f, -0.022702f, -0.101518f, -0.059598f, -0.090664f, 0.010960f, 0.039250f, -0.028665f,
    -0.180147f, -0.052167f, 0.005473f, -0.051658f, -0.016163f, 0.145155f, -0.064605f, 0.021696f,
    0.077941f, 0.071309f, -0.009148f, -0.168111f, -0.093781f, 0.112017f, -0.025066f, -0.016984f,
    0.003840f, 0.009247f, 0.025907f, 0.036493f, -0.032535f, 0.042918f, 0.070400f, -0.094237f,
    0.053356f, 0.087285f, 0.005870f, -0.019491f, -0.062705f, -0.095713f, -0.001049f, -0.052685f,
    0.026645f, 0.124086f, -0.027842f, -0.035455f, -0.009501f, -0.012820f, -0.044541f, -0.015179f,
    -0.028069f, 0.011354f, -0.065556f, -0.107801f, -0.171682f, 0.054853f, -0.047708f, 0.029514f,
    -0.029094f, -0.023235f, 0.106911f, 0.015897f, -0.052043f, 0.040146f, 0.077179f, -0.012022f,
    0.025809f, -0.048659f, 0.025610f, -0.120101f, 0.026430f, -0.012170f, -0.048642f, 0.018089f,
    -0.170622f, -0.012341f, -0.025450f, 0.019899f, 0.015464f, 0.142015f, 0.034812f, -0.039896f,
    -0.063690f, -0.091235f, 0.079416f, -0.016074f, 0.054083f, -0.009489f, 0.148436f, 0.001396f,
    -0.019884f, 0.119199f, -0.018279f, -0.052401f, 0.053935f, 0.063915f, 0.038710f, -0.029196f,
    0.028261f, -0.061926f, 0.080890f, -0.038838f, 0.066353f, -0.024384f, -0.025237f, 0.089976f,
    0.075382f, 0.069610f, 0.006810f, 0.140203f, 0.109253f, -0.152309f, -0.078727f, -0.028979f,
    -0.093096f, -0.115737f, 0.072700f, 0.135366f, -0.114431f, 0.012939f, -0.022500f, -0.068243f,
    0.000271f, 0.019195f, -0.020504f, -0.030846f, -0.122332f, -0.040510f, 0.037140f, -0.018085f,
    -0.074614f, 0.115217f, -0.041711f, -0.010750f, -0.052968f, 0.010768f, -0.058858f, -0.117846f,
    -0.028958f, -0.097427f, -0.012805f, 0.068320f, 0.096887f, 0.024637f, 0.052762f, -0.020614f,
    0.054183f, -0.026515f, -0.013471f, 0.084846f, -0.102514f, -0.002209f, 0.079339f, 0.019729f,
    -0.004024f, -0.026369f, -0.090147f, -0.093820f, 0.041490f, -0.092438f, -0.030705f, -0.018140f,
    -0.048939f, 0.073033f, -0.010205f, -0.052436f, -0.028234f, -0.133033f, -0.012396f, 0.142714f,
    -0.075634f, 0.002041f, -0.088991f, -0.060820f, -0.062033f, -0.202182f, -0.024171f, 0.038484f,
    0.001616f, -0.077385f, -0.053312f, -0.052762f, -0.017119f, -0.019503f, -0.052350f, -0.044574f,
    -0.069733f, -0.005558f, -0.062101f, -0.048227f, -0.055642f, 0.031517f, 0.008734f, -0.020379f,
    -0.022912f, -0.002799f, -0.050202f, -0.085220f, 0.030173f, -0.007198f, -0.027337f, 0.058435f,
    0.015350f, 0.088289f, 0.030518f, 0.024314f, -0.032289f, 0.026899f, -0.038010f, 0.030956f,
    -0.009641f, -0.042485f, -0.030249f, 0.069107f, 0.002726f, -0.083183f, -0.072430f, 0.047129f,
    -0.060766f, -0.086877f, -0.053494f, 0.024980f, -0.029356f, -0.003312f, -0.037450f, -0.036995f,
    0.122585f, -0.006818f, 0.068972f, 0.105705f, 0.061093f, 0.060021f, 0.029980f, 0.061023f,
    0.013310f, 0.122127f, 0.035000f, 0.101701f, 0.071689f, -0.054936f, -0.092362f, -0.056301f,
    0.013232f, -0.010864f, -0.070206f, 0.097167f, 0.123033f, -0.028262f, 0.185705f, -0.075773f,
    -0.017193f, 0.024955f, 0.022026f, -0.069157f, 0.002540f, 0.081784f, 0.058695f, -0.060889f,
    0.059343f, -0.166960f, 0.032474f, -0.067918f, -0.027380f, -0.032334f, -0.054625f, 0.010938f,
    0.033043f, -0.048950f, 0.053683f, 0.144261f, -0.018468f, 0.056228f, 0.029881f, -0.074092f,
    0.017013f, -0.018312f, -0.021123f, 0.029332f, -0.088899f, -0.165030f, -0.006748f, -0.092012f,
    0.024095f, 0.060034f, 0.042638f, -0.179727f, -0.025822f, 0.038685f, 0.060222f, -0.066362f,
    -0.041517f, -0.009570f, -0.076330f, -0.003407f, 0.219702f, 0.041224f, 0.001051f, 0.027680f,
    0.061466f, -0.049274f, -0.056985f, -0.026084f, -0.100718f, 0.018183f, 0.066600f, 0.008363f,
    -0.144516f, -0.088127f, -0.054164f, 0.042248f, 0.015212f, -0.049522f, 0.009549f, 0.009299f,
    0.029074f, 0.014955f, -0.025924f, -0.048955f, -0.039699f, -0.034783f, 0.017619f, -0.013620f,
    -0.042086f, 0.018644f, -0.062995f, -0.060180f, 0.053634f, 0.030909f, 0.040523f, -0.051455f,
    0.140864f, 0.087648f, -0.118178f, 0.007276f, -0.137290f, 0.051382f, -0.028322f, 0.024219f,
    0.006134f, -0.095770f, 0.051185f, -0.041398f, -0.058365f, -0.105997f, 0.027223f, 0.093057f,
    -0.053273f, -0.044856f, 0.097909f, 0.108102f, -0.000551f, -0.014753f, 0.060100f, -0.099622f,
    0.064153f, -0.038631f, 0.058548f, -0.124393f, 0.093070f, 0.066513f, -0.136124f, -0.062199f,
    -0.113948f, -0.092700f, -0.081551f, -0.022203f, -0.072885f, 0.008234f, -0.006702f, 0.014920f,
    0.122521f, -0.061204f, -0.010394f, -0.003307f, -0.060418f, -0.093478f, 0.089938f, 0.090662f,
    0.111347f, 0.095028f, 0.003007f, 0.028561f, -0.014593f, 0.028634f, -0.045745f, 0.002626f,
    -0.029332f, 0.124213f, -0.079607f, -0.002630f, -0.069103f, -0.000800f, -0.064673f, -0.159010f,
    0.036678f, -0.002212f, -0.016501f, -0.080727f, -0.002636f, 0.067833f, -0.029374f, -0.048230f,
    -0.039163f, -0.089244f, 0.011319f, -0.018105f, -0.018638f, -0.142146f, -0.049063f, -0.029887f,
    -0.038398f, -0.063191f, 0.069219f, -0.016658f, -0.173869f, -0.002065f, -0.125280f, -0.031780f,
    0.001212f, -0.023480f, -0.011624f, 0.141055f, -0.037870f, -0.079019f, -0.021729f, 0.075588f,
    -0.062147f, 0.000929f, -0.067527f, 0.040094f, -0.018631f, -0.032644f, 0.029010f, 0.070041f,
    -0.024616f, 0.142956f, 0.087967f, 0.087807f, 0.000163f, 0.054353f, -0.048591f, -0.042473f,
    0.084081f, -0.038542f, 0.050466f, 0.095746f, 0.108201f, -0.000097f, 0.024959f, -0.028492f,
    -0.066901f, -0.013666f, -0.067248f, -0.081947f, -0.045633f, -0.033147f, 0.047559f, -0.028268f,
    0.022571f, 0.042945f, 0.103177f, 0.057520f, -0.030674f, -0.014830f, 0.059251f, -0.000202f,
    -0.032991f, -0.014635f, -0.016254f, -0.167441f, -0.029426f, -0.082314f, -0.070238f, -0.031308f,
    -0.071493f, 0.078954f, -0.040288f, -0.040274f, 0.021518f, 0.062230f, -0.094416f, -0.181506f,
    0.039311f, 0.091452f, -0.085540f, -0.014013f, -0.018391f, -0.043754f, 0.022411f, -0.034322f,
    -0.124922f, 0.118811f, -0.088176f, 0.081804f, 0.036388f, -0.098646f, -0.050672f, 0.007627f,
    -0.106636f, -0.026196f, -0.036677f, 0.055036f, -0.006841f, -0.030275f, -0.023182f, -0.078934f,
    0.019909f, 0.034225f, -0.002016f, 0.078032f, 0.012067f, -0.095975f, 0.109235f, 0.031587f,
    0.092025f, 0.064638f, -0.081789f, 0.003020f, -0.028543f, 0.081741f, -0.075513f, 0.066111f,
    -0.000637f, 0.123591f, -0.043229f, -0.066488f, -0.065916f, -0.139520f, 0.040963f, -0.004718f,
    -0.119762f, -0.050789f, -0.175115f, -0.023282f, 0.110611f, -0.058782f, 0.010516f, 0.021455f,
    -0.087951f, -0.006950f, 0.002948f, -0.002978f, -0.027804f, 0.026874f, 0.055695f, -0.125751f,
    0.100648f, -0.037921f, -0.095870f, -0.104112f, 0.076267f, -0.008338f, -0.020863f, -0.088258f,
    -0.034745f, -0.051555f, 0.006718f, -0.050049f, -0.129210f, 0.030884f, 0.044003f, -0.068100f,
    0.015749f, 0.009939f, -0.005949f, -0.011456f, 0.016839f, 0.054176f, 0.031523f, -0.083522f,
    0.010638f, 0.113708f, 0.008002f, 0.048200f, -0.053022f, 0.080533f, 0.055074f, -0.005496f,
    -0.007460f, -0.027796f, -0.053401f, -0.077620f, -0.034211f, -0.026666f, -0.031489f, 0.023534f,
    -0.034348f, 0.026604f, 0.033924f, -0.001275f, -0.006271f, 0.010106f, -0.081740f, -0.092694f,
    0.019130f, -0.108115f, 0.046922f, -0.068105f, 0.004322f, -0.036504f, 0.032215f, -0.022382f,
    -0.010551f, -0.050265f, 0.064557f, -0.034106f, -0.029560f, 0.066461f, 0.066123f, 0.075162f,
    -0.021585f, 0.093120f, -0.096620f, 0.048880f, -0.023158f, 0.048513f, -0.086556f, -0.009617f,
    -0.174174f, -0.109810f, -0.042739f, 0.031468f, -0.120288f, 0.062092f, -0.099525f, 0.033620f,
    0.075295f, 0.008914f, -0.119269f, 0.011781f, -0.018694f, 0.137966f, 0.139944f, -0.106149f,
    -0.019744f, 0.037377f, 0.006864f, -0.017730f, 0.026962f, -0.080414f, 0.007757f, 0.068862f,
    0.040908f, 0.099785f, -0.057369f, 0.027132f, 0.060493f, -0.031954f, -0.091597f, -0.091565f,
    0.035422f, 0.020229f, -0.097299f, 0.030650f, 0.030969f, -0.030469f, 0.112567f, 0.067979f,
    -0.024487f, 0.001286f, -0.130058f, -0.020048f, 0.043822f, 0.046250f, -0.075292f, 0.027623f,
    -0.004565f, 0.018588f, -0.060287f, -0.017745f, 0.001068f, 0.052449f, 0.002481f, -0.076456f,
    -0.101798f, 0.070332f, 0.110687f, 0.000199f, -0.071577f, -0.011821f, 0.028355f, -0.093614f,
    -0.152591f, -0.067459f, -0.022820f, -0.025322f, -0.048430f, 0.195513f, 0.105996f, -0.012897f,
    0.090804f, 0.016450f, 0.063841f, 0.098493f, -0.117156f, 0.131305f, 0.120563f, -0.032596f,
    0.062632f, 0.086439f, -0.027607f, -0.010273f, -0.016262f, -0.008754f, -0.013120f, 0.011620f,
    -0.046218f, -0.109280f, -0.059058f, 0.004699f, -0.095523f, 0.017029f, -0.164187f, 0.057623f,
    0.004412f, -0.018102f, 0.057747f, -0.094767f, -0.031066f, 0.098204f, -0.059048f, -0.014313f,
    0.073592f, -0.029970f, 0.094399f, -0.042599f, -0.155039f, 0.096626f, 0.017080f, 0.001724f,
    0.036343f, 0.050924f, 0.008266f, 0.039445f, -0.013099f, -0.060096f, 0.073440f, 0.003052f,
    -0.059117f, -0.029823f, 0.016243f, -0.093980f, -0.069944f, -0.040514f, 0.063979f, 0.036381f,
    0.012898f, -0.018328f, 0.126610f, -0.111713f, 0.061165f, 0.047068f, -0.084158f, -0.018946f,
    -0.023747f, -0.092266f, 0.019657f, -0.048929f, -0.053636f, 0.064388f, -0.059081f, -0.021675f,
    -0.036605f, 0.014855f, -0.027147f, -0.010807f, 0.009368f, -0.000476f, 0.006834f, 0.022155f,
    -0.006750f, -0.073759f, -0.082690f, -0.131521f, 0.054563f, 0.045083f, -0.052430f, 0.039534f,
    -0.134346f, 0.076122f, -0.046135f, 0.014027f, 0.090998f, 0.004965f, -0.083813f, 0.108954f,
    -0.036091f, -0.068629f, -0.005121f, 0.018706f, -0.199946f, 0.091354f, -0.067935f, -0.169116f,
    -0.043742f, 0.063031f, 0.044118f, -0.045013f, -0.005660f, 0.004600f, 0.058737f, -0.010149f,
    0.017919f, -0.044116f, 0.091204f, -0.049978f, -0.014172f, -0.207313f, -0.011549f, -0.052814f,
    0.067538f, -0.045917f, -0.000543f, 0.004337f, 0.025747f, 0.074814f, -0.005585f, -0.075208f,
    0.029104f, -0.024927f, -0.089704f, -0.100381f, 0.097542f, 0.071329f, -0.000206f, -0.087860f,
    0.024462f, -0.160007f, -0.046482f, 0.001613f, -0.027336f, 0.022588f, 0.006138f, 0.018240f,
    -0.084756f, -0.059339f, 0.019553f, -0.030191f, -0.018218f, -0.071709f, -0.097526f, -0.054937f,
    0.008238f, 0.005805f, -0.011143f, 0.075235f, 0.026239f, -0.085936f, -0.088359f, -0.002331f,
    -0.028701f, 0.002119f, 0.006325f, -0.037501f, 0.058444f, -0.058669f, -0.022044f, -0.000908f,
    0.050582f, 0.091291f, 0.020329f, 0.016047f, 0.032123f, 0.021357f, 0.022042f, 0.053130f,
    -0.029429f, -0.167725f, 0.050429f, -0.110457f, 0.078996f, -0.043879f, 0.081749f, -0.028876f,
    -0.094152f, -0.068503f, 0.153852f, 0.067543f, 0.010851f, -0.002589f, 0.053459f, 0.006337f,
    -0.058283f, 0.124207f, 0.071371f, 0.084396f, 0.057885f, -0.041971f, 0.014039f, 0.031007f,
    0.098847f, -0.090202f, 0.061581f, -0.082702f, 0.030021f, -0.119465f, 0.054701f, 0.014142f,
    -0.069783f, -0.002576f, -0.102160f, -0.059629f, -0.130525f, 0.167202f, 0.018360f, 0.107711f,
    -0.047159f, 0.058253f, -0.030914f, 0.071023f, -0.073299f, -0.032539f, -0.063772f, 0.063079f,
    0.042182f, -0.061274f, 0.023575f, 0.055109f, -0.096256f, -0.010171f, 0.042058f, 0.001357f,
    0.013713f, 0.012657f, -0.041298f, 0.030611f, 0.058647f, 0.065157f, -0.080192f, 0.133437f,
    -0.027962f, -0.048484f, -0.109099f, 0.008968f, 0.052377f, 0.086976f, -0.204039f, 0.040571f,
    0.067754f, -0.083631f, 0.041971f, 0.015036f, -0.013273f, 0.034154f, -0.016351f, 0.042568f,
    -0.169803f, -0.041522f, -0.128233f, -0.033765f, -0.160222f, -0.030469f, 0.043228f, -0.060333f,
    -0.089566f, -0.080172f, -0.001677f, -0.031338f, 0.033528f, 0.025258f, -0.006168f, -0.010140f,
    0.041469f, 0.001950f, -0.080845f, 0.066205f, -0.069792f, -0.067547f, 0.166273f, 0.086441f,
    0.023210f, -0.084413f, 0.119835f, 0.033751f, 0.026461f, 0.130447f, 0.070703f, -0.009279f,
    -0.039521f, 0.124663f, -0.041707f, 0.016973f, -0.091958f, 0.071560f, 0.014506f, 0.105701f,
    0.051216f, -0.050033f, 0.117135f, -0.059014f, 0.015542f, -0.063903f, 0.065074f, 0.070149f,
    0.045824f, -0.074751f, -0.039673f, -0.106763f, 0.037378f, 0.008064f, -0.074358f, -0.044381f,
    0.041759f, -0.096718f, -0.051759f, -0.035831f, 0.125196f, -0.017171f, -0.037971f, 0.003906f,
    0.087674f, 0.050069f, 0.104478f, 0.231420f, 0.046237f, 0.041274f, 0.000796f, 0.109957f,
    -0.015967f, -0.071736f, 0.061411f, -0.142606f, 0.064193f, 0.035162f, 0.001738f, -0.018202f,
    -0.057723f, 0.074113f, -0.086019f, 0.098456f, 0.054168f, -0.034953f, 0.027971f, 0.003905f,
    -0.014940f, -0.055879f, 0.206550f, 0.105497f, 0.098227f, -0.022416f, 0.061770f, -0.011117f,
    -0.066147f, 0.043766f, 0.070434f, 0.014419f, 0.034591f, 0.062081f, 0.051670f, 0.052729f,
    0.115157f, -0.039637f, 0.022794f, 0.146560f, 0.033203f, -0.038264f, 0.041563f, 0.094144f,
    -0.038067f, -0.081682f, -0.062773f, 0.060124f, 0.032161f, -0.014628f, 0.032965f, -0.049981f,
    0.079714f, 0.050817f, -0.015242f, -0.061383f, 0.073239f, -0.055841f, -0.001092f, 0.001529f,
    -0.006577f, -0.065643f, -0.000022f, 0.024401f, 0.054718f, -0.026022f, 0.010935f, 0.012705f,
    0.015735f, 0.034416f, 0.051577f, -0.009750f, -0.090645f, 0.079549f, 0.111131f, 0.050292f,
    -0.014098f, -0.045920f, -0.022127f, -0.081063f, 0.083042f, 0.018644f, 0.127817f, 0.091219f,
    0.035060f, -0.115614f, 0.068076f, 0.045018f, 0.047559f, -0.067120f, -0.009014f, -0.016770f,
    -0.079975f, 0.083854f, -0.160010f, -0.046335f, 0.243681f, -0.055480f, 0.067408f, 0.089836f,
    0.021385f, 0.144468f, -0.024541f, -0.041899f, -0.075324f, 0.111044f, 0.064364f, 0.134281f,
    -0.074705f, -0.086963f, 0.113340f, -0.033217f, 0.037153f, -0.159064f, -0.034657f, -0.006551f,
    -0.023654f, 0.015427f, -0.047425f, 0.194166f, 0.103034f, 0.030252f, 0.121587f, 0.078642f,
    -0.135619f, 0.055311f, -0.033598f, -0.056890f, 0.050302f, 0.001521f, 0.024246f, -0.033311f,
    0.013383f, 0.016734f, -0.046883f, -0.120170f, 0.149156f, -0.157088f, 0.066877f, -0.037531f,
    -0.108198f, -0.063249f, 0.053323f, -0.280410f, -0.048645f, 0.071763f, -0.058085f, -0.041807f,
    0.191038f, -0.097776f, 0.118002f, 0.061210f, 0.083665f, 0.066312f, -0.041543f, 0.111317f,
    0.111159f, 0.090839f, 0.112093f, 0.079467f, -0.012146f, 0.088435f, -0.072140f, 0.082226f,
    0.055989f, -0.004256f, 0.054401f, 0.006630f, 0.076465f, 0.054318f, 0.062745f, 0.029323f,
    0.134184f, -0.064106f, -0.049745f, 0.055027f, 0.053124f, -0.007551f, -0.009974f, 0.097318f,
    0.136961f, 0.112548f, -0.034152f, 0.062900f, 0.084011f, -0.047999f, -0.023898f, -0.069648f,
    -0.013510f, 0.062453f, 0.021101f, 0.049916f, 0.088838f, -0.055013f, 0.016106f, 0.091570f,
    0.044716f, -0.013925f, -0.015478f, 0.126389f, 0.014871f, 0.204509f, 0.183875f, 0.026886f,
    -0.097750f, -0.029475f, 0.063203f, -0.044184f, -0.004854f, -0.006486f, 0.008430f, 0.082317f,
    0.090373f, -0.012993f, 0.146989f, 0.048905f, 0.031401f, -0.046142f, 0.048833f, 0.112522f,
    0.023316f, 0.019972f, 0.049965f, -0.089451f, -0.012648f, 0.102242f, 0.012055f, 0.030472f,
    0.076310f, 0.154450f, 0.026295f, 0.040709f, 0.018843f, -0.119258f, 0.013911f, 0.028827f,
    0.004398f, 0.036804f, 0.105765f, 0.057187f, -0.083273f, 0.034355f, 0.100133f, 0.095828f,
    -0.012632f, 0.062975f, 0.130839f, -0.063992f, 0.050469f, 0.008765f, -0.004852f, 0.015814f,
    0.090824f, -0.116679f, 0.075896f, -0.034335f, -0.083385f, 0.060280f, 0.040490f, 0.092461f,
    -0.136189f, 0.008299f, 0.035416f, -0.073714f, -0.079089f, -0.020680f, -0.015038f, -0.052013f,
    -0.138972f, 0.148584f, -0.006536f, 0.167376f, 0.065456f, 0.016099f, -0.063170f, -0.031457f,
    -0.031160f, 0.003676f, 0.028881f, 0.023011f, -0.025485f, 0.027562f, 0.086068f, -0.131256f,
    0.109677f, -0.105997f, 0.163906f, -0.007271f, -0.012057f, -0.016968f, 0.088695f, -0.050170f,
    0.103321f, -0.017778f, -0.042686f, -0.109999f, 0.008596f, -0.030694f, -0.005154f, -0.038415f,
    0.028702f, 0.005909f, 0.013026f, -0.138606f, -0.092263f, -0.084360f, 0.049389f, -0.048670f,
    0.049890f, -0.179325f, 0.069538f, -0.096599f, 0.021405f, -0.002395f, -0.036136f, 0.023735f,
    0.012712f, 0.034587f, -0.013531f, -0.166399f, -0.083749f, 0.060390f, -0.058373f, 0.091941f,
    -0.087059f, -0.158786f, -0.039320f, -0.003621f, -0.042279f, 0.017388f, -0.058586f, 0.069005f,
    -0.110919f, 0.014442f, 0.102600f, 0.078119f, 0.070950f, -0.096898f, 0.010992f, -0.021326f,
    -0.037111f, -0.028755f, 0.091784f, -0.058560f, 0.061661f, 0.002826f, 0.019542f, -0.081114f,
    0.028860f, 0.049521f, 0.055161f, 0.081444f, -0.038829f, -0.020194f, 0.045822f, 0.091428f,
    0.083956f, 0.064423f, -0.026015f, -0.099714f, 0.018936f, -0.049778f, -0.053400f, 0.045550f,
    -0.044542f, 0.028910f, 0.060059f, 0.073951f, -0.018870f, 0.068844f, -0.019925f, -0.022995f,
    -0.036822f, -0.032503f, 0.111651f, 0.063627f, 0.060233f, 0.047864f, -0.068280f, -0.017130f,
    0.034822f, 0.025037f, -0.100818f, -0.133238f, 0.018413f, -0.054435f, -0.084773f, 0.001645f,
    0.039009f, -0.136591f, -0.009794f, 0.047435f, 0.069369f, 0.028518f, 0.000858f, -0.075738f,
    0.025562f, 0.025243f, -0.139798f, -0.036372f, 0.066362f, 0.029720f, -0.033552f, 0.109030f,
    -0.039289f, -0.043140f, -0.181197f, -0.084790f, -0.160256f, 0.003592f, 0.019722f, -0.055326f,
    -0.059494f, 0.029505f, -0.124597f, 0.061072f, -0.015759f, 0.099437f, -0.018609f, 0.088096f,
    0.020721f, 0.017183f, -0.038148f, 0.074697f, -0.126736f, -0.028590f, 0.073484f, 0.128392f,
    0.063621f, -0.054466f, 0.108017f, -0.080455f, -0.017397f, -0.042656f, 0.083128f, 0.101109f,
    0.077071f, 0.024829f, 0.047963f, -0.112173f, 0.016642f, -0.020374f, -0.077577f, 0.011108f,
    0.141337f, -0.082702f, 0.006521f, -0.028515f, 0.067525f, 0.010687f, 0.004205f, 0.083484f,
    -0.009395f, 0.021266f, -0.073179f, -0.084408f, 0.004796f, -0.017172f, 0.022146f, 0.020943f,
    -0.090128f, 0.178630f, 0.076804f, 0.030314f, 0.047680f, -0.087708f, -0.001693f, -0.033954f,
    -0.053342f, 0.004794f, 0.039015f, -0.111201f, -0.021484f, -0.005517f, -0.097942f, -0.132448f,
    0.106036f, 0.065651f, -0.064276f, -0.081134f, -0.026089f, -0.015721f, -0.028626f, -0.023059f,
    0.016573f, 0.069273f, -0.086479f, 0.083552f, -0.073699f, -0.112805f, -0.090049f, 0.037132f,
    0.061576f, -0.037742f, -0.050061f, 0.023848f, -0.004439f, 0.005138f, 0.059284f, -0.106824f,
    -0.033445f, 0.001233f, -0.028508f, -0.026388f, 0.043170f, 0.001645f, -0.164131f, 0.085033f,
    0.065027f, -0.031677f, 0.003138f, -0.002508f, 0.038553f, -0.123350f, -0.055536f, -0.081906f,
    -0.199064f, 0.101883f, -0.058645f, -0.002370f, 0.077523f, -0.028622f, -0.129552f, 0.101917f,
    -0.024091f, -0.057010f, 0.108616f, 0.127844f, -0.069035f, 0.108210f, 0.000142f, -0.071265f,
    0.041197f, 0.044626f, -0.031395f, 0.033346f, 0.024275f, -0.057909f, 0.116841f, -0.103669f,
    0.100643f, -0.081386f, -0.131169f, -0.086406f, -0.031331f, 0.039877f, -0.105829f, 0.001771f,
    -0.034315f, -0.012687f, -0.046463f, 0.005275f, 0.008489f, -0.067686f, -0.066925f, -0.009571f,
    -0.071623f, 0.053851f, 0.049916f, 0.047537f, -0.060488f, -0.080660f, -0.066324f, 0.036557f,
    -0.073244f, -0.032540f, 0.004490f, -0.014960f, 0.015299f, 0.034477f, 0.046110f, -0.028245f,
    0.135676f, 0.084662f, -0.021759f, -0.006002f, 0.047960f, 0.100461f, -0.010517f, -0.103140f,
    -0.089939f, 0.017634f, -0.054660f, -0.112112f, 0.003564f, 0.047348f, -0.030225f, -0.065504f,
    0.076113f, -0.071185f, -0.051601f, 0.040817f, 0.098800f, 0.008534f, 0.033403f, -0.142393f,
    0.040240f, -0.077240f, -0.081009f, -0.073095f, -0.057005f, -0.065104f, -0.026532f, -0.051224f,
    -0.024343f, -0.035198f, 0.130513f, 0.158503f, -0.050192f, 0.051486f, -0.115579f, 0.017166f,
    0.018606f, 0.040847f, 0.000090f, 0.004635f, 0.052297f, 0.019669f, 0.040704f, -0.059100f,
    0.085989f, 0.161596f, -0.016734f, 0.186133f, -0.068172f, 0.078188f, 0.137499f, 0.059658f,
    -0.071882f, -0.128435f, 0.022419f, -0.057887f, 0.032597f, -0.125066f, 0.040544f, 0.012846f,
    0.021900f, -0.096463f, -0.016382f, 0.105802f, -0.009859f, 0.043533f, 0.099771f, 0.046528f,
    -0.012086f, 0.085765f, 0.111213f, 0.007809f, -0.116917f, 0.094238f, -0.024870f, 0.089024f,
    0.115941f, 0.026616f, -0.061903f, 0.099449f, 0.035412f, -0.024356f, 0.176331f, 0.079347f,
    -0.192617f, -0.055470f, 0.017743f, -0.105448f, -0.012180f, 0.011379f, 0.052469f, -0.011783f,
    0.026096f, -0.005891f, -0.046077f, 0.043541f, -0.092048f, 0.064620f, -0.025049f, 0.049786f,
    -0.053923f, -0.037261f, -0.030691f, 0.003115f, -0.035797f, 0.034365f, -0.053811f, -0.033359f,
    -0.101238f, 0.031327f, -0.072013f, -0.057315f, -0.086084f, 0.005699f, -0.056476f, 0.015219f,
    -0.045396f, -0.200222f, -0.008430f, -0.135418f, 0.123990f, -0.072180f, -0.024767f, -0.017674f,
    0.020550f, 0.037485f, -0.055916f, 0.032502f, -0.058211f, -0.037603f, 0.026678f, 0.102361f,
    -0.009985f, -0.008857f, 0.069306f, 0.018835f, -0.063755f, -0.081709f, -0.010290f, 0.113758f,
    -0.074356f, 0.019771f, 0.208806f, 0.040741f, -0.052522f, 0.033362f, -0.093400f, -0.008347f,
    0.005304f, -0.084903f, -0.092201f, 0.001253f, 0.106212f, -0.034192f, -0.097832f, -0.090401f,
    -0.033770f, -0.034060f, 0.107263f, -0.030245f, -0.052296f, 0.061798f, -0.000381f, -0.113993f,
    -0.024188f, -0.098782f, -0.012194f, -0.061647f, -0.066449f, 0.035437f, 0.045747f, -0.016129f,
    -0.003943f, -0.045536f, 0.022858f, -0.179534f, -0.052170f, -0.041979f, 0.125718f, 0.014928f,
    -0.161149f, 0.059912f, 0.021931f, -0.013311f, -0.097270f, -0.079247f, -0.056191f, -0.033226f,
    0.043192f, 0.078263f, -0.095329f, -0.035576f, -0.046406f, 0.067114f, 0.089817f, 0.018030f,
    -0.033118f, 0.021091f, 0.102684f, -0.044625f, -0.110794f, -0.053070f, -0.039203f, 0.031971f,
    -0.020465f, 0.013648f, 0.054041f, 0.036577f, -0.085569f, -0.171449f, -0.015091f, 0.028397f,
    -0.040334f, 0.021352f, -0.129805f, 0.064210f, -0.059380f, 0.054216f, 0.052120f, -0.128804f,
    0.092927f, 0.042188f, -0.070955f, -0.061336f, -0.128470f, 0.046280f, -0.110021f, -0.014297f,
    0.017525f, -0.070275f, 0.056104f, 0.031544f, -0.020405f, -0.122982f, -0.118195f, 0.016062f,
    -0.004331f, 0.024665f, 0.011917f, -0.010414f, -0.091535f, -0.033306f, 0.014706f, 0.010428f,
    -0.062218f, 0.009680f, 0.057727f, 0.029929f, -0.080499f, 0.040822f, 0.053042f, 0.082688f,
    0.034879f, -0.128733f, 0.035556f, 0.023639f, -0.030645f, -0.106696f, 0.015486f, 0.066220f,
    -0.011886f, -0.154570f, 0.016760f, -0.089161f, 0.057694f, -0.026582f, -0.028248f, 0.142592f,
    -0.022536f, -0.113255f, -0.008855f, 0.051637f, -0.111899f, -0.054196f, 0.055004f, -0.014065f,
    0.010215f, -0.105791f, -0.102472f, -0.017493f, 0.072687f, 0.114378f, 0.033157f, -0.072346f,
    0.095085f, -0.015512f, -0.007746f, 0.030220f, 0.064736f, 0.020552f, -0.057702f, -0.062581f,
    0.025345f, 0.095591f, 0.043225f, -0.029126f, -0.058296f, 0.003226f, -0.105401f, 0.079016f,
    -0.010922f, 0.073965f, -0.110722f, 0.044269f, -0.134422f, 0.021998f, 0.154396f, 0.080507f,
    -0.070295f, 0.007343f, 0.002325f, 0.026562f, 0.019284f, -0.174550f, -0.115898f, 0.045957f,
    -0.065721f, -0.099799f, 0.021363f, -0.015440f, -0.011696f, -0.037626f, 0.043895f, -0.024209f,
    -0.038554f, 0.004317f, -0.039722f, -0.033497f, 0.139671f, 0.062882f, -0.057065f, 0.058364f,
    0.004314f, 0.046339f, 0.006337f, -0.083109f, -0.012776f, 0.059400f, -0.012417f, -0.000560f,
    -0.024743f, 0.000216f, -0.019147f, -0.071372f, -0.040178f, -0.048837f, -0.010278f, -0.012043f,
    -0.015041f, 0.019905f, -0.066965f, -0.061684f, -0.028737f, 0.018266f, -0.052659f, -0.035367f,
    0.029199f, 0.041104f, -0.056479f, 0.058435f, 0.000398f, -0.169859f, -0.071343f, 0.040694f,
    0.010420f, 0.062439f, -0.064892f, -0.087889f, -0.014734f, -0.045779f, -0.135653f, -0.117317f,
    -0.088692f, 0.051974f, -0.081492f, -0.115498f, 0.094052f, 0.078253f, 0.050376f, 0.020888f,
    0.020810f, 0.000104f, -0.074071f, 0.022512f, -0.067448f, 0.027217f, -0.086197f, 0.165465f,
    -0.101328f, -0.070190f, -0.044297f, -0.031669f, -0.013842f, -0.143077f, -0.088667f, 0.035329f,
    -0.054071f, 0.048527f, 0.067922f, 0.138693f, -0.033061f, -0.105422f, -0.023996f, 0.127905f,
    -0.059097f, 0.075369f, 0.035453f, 0.019501f, -0.065438f, 0.046727f, -0.114626f, 0.060644f,
    0.050133f, 0.065480f, -0.079118f, -0.080738f, -0.013572f, -0.094805f, -0.106296f, -0.034251f,
    0.048981f, -0.006631f, 0.056172f, -0.055605f, -0.093736f, 0.043668f, -0.008938f, -0.029965f,
    0.066280f, 0.067668f, 0.030882f, 0.018864f, -0.059192f, 0.025045f, -0.036391f, 0.031721f,
    -0.117442f, -0.031208f, -0.053165f, -0.037918f, -0.137053f, -0.050379f, 0.006754f, -0.018350f,
    -0.113650f, 0.073304f, -0.074067f, 0.096113f, 0.014871f, 0.087063f, 0.023673f, 0.000783f,
    -0.002457f, -0.080746f, -0.104174f, -0.101200f, -0.073518f, 0.017389f, 0.130211f, -0.023340f,
    -0.022364f, -0.037093f, -0.147794f, -0.015285f, -0.003775f, -0.083484f, -0.115729f, 0.093496f,
    0.122387f, -0.073731f, -0.006329f, -0.040862f, -0.029641f, -0.085150f, 0.010252f, 0.033542f,
    0.080588f, -0.060690f, 0.037645f, 0.016739f, 0.112292f, -0.017633f, -0.092694f, -0.037737f,
    0.019693f, 0.064648f, 0.087063f, 0.013749f, -0.090622f, -0.005903f, -0.021261f, -0.006727f,
    0.114546f, -0.039871f, -0.030245f, 0.063345f, -0.062791f, 0.031242f, 0.087879f, -0.116377f,
    0.084285f, 0.040866f, -0.111592f, 0.067837f, -0.056789f, 0.043342f, 0.048140f, 0.080875f,
    0.092561f, 0.096428f, -0.014408f, 0.050663f, 0.020399f, 0.062134f, -0.036743f, -0.129645f,
    -0.012898f, 0.044191f, 0.085356f, 0.013180f, 0.107572f, 0.071061f, -0.002239f, 0.014837f,
    0.059778f, 0.090093f, 0.006112f, -0.062106f, -0.042214f, 0.078016f, -0.060599f, -0.027636f,
    0.101184f, -0.010844f, -0.084817f, -0.097639f, 0.013453f, -0.083382f, -0.089115f, -0.078034f,
    -0.124137f, -0.042689f, -0.088572f, 0.049821f, -0.004426f, -0.009615f, -0.081195f, 0.032540f,
    -0.007076f, -0.105986f, -0.078131f, -0.128176f, -0.046735f, 0.037059f, -0.024218f, -0.050214f,
    0.110445f, 0.048573f, -0.085339f, 0.070803f, -0.017765f, -0.045192f, -0.062290f, -0.049546f,
    0.101461f, 0.065331f, -0.024244f, -0.050792f, 0.032480f, 0.020592f, 0.044176f, -0.003173f,
    0.096411f, -0.119132f, 0.070396f, 0.029076f, -0.071788f, -0.235721f, 0.037764f, 0.011612f,
    0.058637f, 0.072205f, -0.085838f, 0.057757f, -0.092964f, -0.048356f, 0.024168f, 0.124145f,
    -0.084328f, -0.007965f, -0.096963f, -0.105653f, -0.021222f, -0.074033f, -0.105359f, -0.010195f,
    -0.055526f, 0.096899f, 0.012331f, 0.046603f, -0.004208f, 0.083231f, 0.044046f, 0.057642f,
    0.073395f, 0.060365f, 0.003670f, 0.050821f, 0.068374f, -0.140989f, -0.062286f, 0.010557f,
    -0.128000f, -0.078437f, -0.016079f, -0.034696f, -0.067562f, -0.011157f, 0.014154f, -0.057541f,
    -0.069847f, -0.127300f, 0.013668f, -0.013979f, -0.060173f, -0.029935f, 0.050752f, -0.062770f,
    -0.050074f, 0.091935f, -0.007162f, 0.012090f, -0.075685f, -0.127383f, 0.029878f, -0.012333f,
    -0.067129f, 0.040358f, 0.056329f, -0.042735f, -0.059807f, 0.105132f, 0.003904f, -0.095399f,
    0.026682f, 0.015245f, 0.024765f, 0.031351f, 0.030070f, -0.050610f, -0.051005f, -0.008809f,
    0.008884f, 0.033949f, -0.052607f, -0.007192f, 0.076811f, -0.006276f, -0.059018f, -0.006836f,
    -0.005810f, -0.106792f, 0.029118f, 0.048303f, 0.086430f, 0.081142f, -0.001092f, -0.023658f,
    -0.094895f, 0.008866f, -0.025617f, -0.011276f, 0.120845f, -0.022189f, -0.002591f, -0.009865f,
    -0.045677f, -0.049915f, -0.042199f, 0.028860f, 0.031794f, 0.009645f, 0.007130f, 0.166032f,
    0.008343f, -0.074466f, 0.058027f, 0.067957f, 0.047109f, 0.061779f, -0.063334f, -0.092766f,
    0.070189f, 0.016055f, -0.040491f, 0.052196f, -0.054309f, -0.078138f, 0.006564f, -0.000385f,
    -0.048336f, -0.068701f, -0.021758f, -0.049809f, 0.000326f, -0.043597f, 0.024697f, 0.110642f,
    0.060311f, 0.018424f, 0.125900f, 0.054001f, 0.080074f, 0.063727f, 0.023844f, 0.032235f,
    -0.044193f, -0.002015f, 0.031953f, 0.067267f, 0.115875f, -0.020448f, -0.047143f, -0.017916f,
    -0.020734f, -0.087831f, -0.136872f, -0.098013f, -0.033141f, -0.018622f, 0.109324f, -0.077718f,
    0.064569f, 0.058133f, -0.027237f, -0.113725f, 0.055215f, -0.025996f, -0.065192f, 0.086631f,
    -0.019765f, 0.036618f, 0.040082f, -0.046578f, 0.099729f, -0.036617f, 0.097010f, 0.102515f,
    0.074963f, -0.039285f, 0.155528f, 0.097645f, 0.047382f, -0.015222f, 0.035782f, 0.087074f,
    -0.047590f, -0.030705f, 0.006643f, -0.026471f, -0.003502f, 0.135322f, -0.050862f, 0.054841f,
    0.000295f, 0.177228f, -0.033458f, 0.025411f, 0.061256f, -0.057156f, -0.050030f, -0.051899f,
    0.162499f, -0.007387f, -0.034370f, 0.068393f, 0.073690f, -0.055552f, 0.067512f, 0.027608f,
    0.035886f, 0.043294f, 0.028401f, -0.049024f, 0.172510f, 0.155997f, -0.065924f, 0.055618f,
    0.128406f, -0.009730f, -0.039559f, 0.019082f, -0.003509f, -0.069114f, 0.033290f, 0.023895f,
    0.021746f, -0.024033f, -0.009085f, 0.074739f, 0.047554f, -0.105868f, 0.034264f, -0.004584f,
    0.000476f, 0.064561f, -0.046232f, 0.053356f, -0.052487f, -0.017572f, -0.074087f, 0.086775f,
    0.137246f, -0.040423f, -0.049484f, -0.006609f, 0.047313f, 0.020152f, -0.086207f, -0.042265f,
    -0.058971f, 0.007824f, -0.054273f, 0.019104f, 0.002433f, -0.061071f, -0.036055f, -0.070273f,
    -0.022364f, -0.027852f, 0.155566f, -0.020202f, 0.062545f, 0.103306f, 0.041069f, -0.046663f,
    -0.001151f, 0.127010f, -0.003538f, -0.055036f, 0.004863f, -0.060900f, 0.133997f, -0.059567f,
    -0.036750f, -0.029759f, 0.001200f, 0.108519f, 0.013865f, -0.043203f, -0.059809f, -0.043462f,
    0.011859f, -0.014813f, -0.119751f, 0.079590f, -0.032781f, -0.066139f, -0.013777f, 0.111755f,
    0.027481f, -0.063318f, 0.043578f, -0.036892f, -0.056448f, 0.052347f, -0.087880f, -0.087438f,
    0.030032f, -0.018527f, 0.022482f, -0.037455f, -0.002756f, 0.033912f, -0.074188f, -0.055515f,
    0.103603f, -0.043065f, 0.046097f, 0.015254f, 0.129382f, -0.009061f, -0.021474f, 0.020354f,
    0.027707f, 0.029899f, 0.003755f, -0.012790f, 0.000606f, 0.049827f, -0.078488f, -0.132650f,
    0.035473f, -0.065512f, 0.052446f, 0.020757f, -0.100969f, 0.076843f, -0.032994f, -0.029617f,
    -0.000858f, 0.073548f, -0.016330f, 0.029574f, 0.062627f, 0.140040f, 0.096076f, 0.014747f,
    0.005481f, -0.009496f, -0.037108f, 0.051655f, 0.002461f, 0.009998f, -0.109002f, -0.076415f,
    0.014590f, 0.024203f, 0.015693f, -0.013306f, 0.034222f, 0.122012f, 0.012611f, -0.132764f,
    0.091505f, 0.008854f, -0.081368f, -0.014278f, -0.090736f, 0.005869f, -0.048714f, 0.024431f,
    -0.099872f, -0.170640f, 0.058913f, 0.084438f, -0.018787f, -0.118181f, 0.012952f, -0.027710f,
    -0.048700f, 0.042251f, -0.000356f, -0.054592f, -0.106937f, -0.038999f, 0.053371f, 0.016932f,
    0.021768f, -0.092107f, -0.116418f, -0.005877f, 0.014072f, 0.040683f, -0.113455f, -0.016478f,
    -0.014268f, 0.067377f, 0.099767f, -0.075685f, 0.096387f, 0.008351f, 0.090347f, 0.062856f,
    0.126129f, 0.133290f, 0.048515f, -0.084349f, -0.003055f, 0.073141f, -0.036455f, 0.060216f,
    0.000948f, 0.031840f, -0.046120f, 0.037053f, 0.001674f, 0.061584f, -0.030817f, -0.041204f,
    -0.010983f, -0.005471f, -0.068183f, -0.012434f, 0.089523f, -0.113760f, 0.038692f, 0.057313f,
    0.005527f, 0.019357f, 0.071457f, 0.006304f, 0.000025f, 0.002558f, -0.008812f, 0.057440f,
    -0.047475f, -0.066103f, 0.034501f, -0.005357f, 0.084430f, -0.064637f, -0.096934f, 0.133484f,
    -0.035728f, -0.023526f, -0.023833f, -0.125909f, 0.069143f, 0.076183f, -0.036991f, -0.127019f,
    -0.084840f, -0.072418f, 0.035823f, -0.144838f, -0.022726f, -0.037757f, 0.048269f, -0.132979f,
    0.043094f, 0.070718f, -0.190886f, -0.065496f, -0.060094f, -0.026830f, 0.029286f, 0.051117f,
    -0.073037f, -0.032184f, 0.068140f, 0.015636f, 0.065272f, -0.013152f, -0.044437f, 0.027913f,
    -0.073525f, -0.045752f, 0.139301f, -0.022407f, -0.041876f, -0.141943f, 0.033585f, 0.028396f,
    -0.014818f, 0.015416f, 0.057387f, -0.059766f, -0.040206f, 0.046277f, 0.082508f, -0.029815f,
    0.130980f, 0.050259f, -0.050533f, 0.021346f, 0.063667f, 0.021572f, -0.009442f, 0.063468f,
    0.083902f, -0.013725f, -0.048144f, -0.021099f, -0.043869f, -0.052885f, -0.111170f, -0.068286f,
    0.082491f, 0.003615f, 0.024632f, -0.024267f, -0.004386f, 0.189560f, 0.113532f, 0.001248f,
    0.177407f, -0.098970f, 0.079832f, 0.068345f, -0.015058f, 0.035698f, 0.120446f, 0.023257f,
    0.058811f, -0.037529f, 0.003767f, 0.165549f, 0.031020f, -0.009952f, -0.001467f, -0.026653f,
    -0.102413f, -0.033444f, -0.044256f, 0.077878f, 0.064512f, 0.018809f, -0.059206f, -0.062406f,
    -0.036470f, 0.082707f, 0.122501f, -0.122580f, -0.051025f, 0.033423f, 0.006656f, -0.053275f,
    -0.070144f, 0.019502f, -0.069452f, 0.002827f, -0.066924f, 0.078225f, 0.035898f, 0.025531f,
    -0.025218f, -0.050467f, -0.008132f, -0.013788f, -0.008089f, 0.034817f, 0.051012f, -0.033998f,
    -0.029098f, 0.120110f, -0.003199f, 0.004967f, 0.056006f, -0.004228f, 0.035441f, 0.033568f,
    -0.019183f, -0.061836f, 0.025714f, -0.005711f, -0.019486f, -0.069968f, -0.033683f, -0.047762f,
    0.004472f, -0.114331f, 0.009100f, -0.071788f, 0.063457f, -0.021278f, 0.012465f, -0.168617f,
    0.009743f, 0.070018f, -0.003240f, -0.033422f, -0.044318f, -0.026960f, 0.010456f, 0.045842f,
    -0.058199f, -0.001837f, -0.086379f, 0.027904f, 0.020828f, -0.038824f, -0.051769f, 0.069800f,
    0.000126f, -0.066316f, -0.038012f, 0.056951f, 0.048316f, -0.085714f, 0.117825f, -0.007995f,
    -0.000904f, -0.045575f, -0.036490f, 0.007149f, 0.033165f, -0.073594f, -0.007418f, -0.064640f,
    -0.029517f, -0.008477f, 0.003386f, 0.107908f, 0.045113f, 0.013204f, 0.062092f, 0.011586f,
    -0.051119f, -0.008656f, -0.079667f, -0.023925f, -0.037080f, -0.053694f, 0.088427f, -0.033594f,
    0.086429f, 0.108836f, 0.056079f, -0.134894f, 0.024119f, 0.023580f, -0.001697f, -0.020700f,
    -0.059261f, 0.003374f, 0.017459f, -0.102759f, 0.019659f, -0.134602f, -0.078610f, 0.084494f,
    0.044839f, -0.082418f, 0.034531f, -0.087677f, -0.052376f, -0.033900f, -0.119635f, 0.070016f,
    -0.105318f, 0.002330f, -0.067469f, -0.059450f, -0.039014f, 0.011601f, -0.126394f, 0.058846f,
    0.043411f, 0.012702f, -0.056745f, -0.091801f, 0.003577f, -0.056576f, 0.046754f, -0.030833f,
    0.019972f, 0.022770f, 0.051109f, -0.040065f, 0.015515f, -0.036190f, -0.046023f, 0.015552f,
    0.111083f, -0.085054f, 0.043203f, 0.099828f, -0.022365f, 0.072986f, 0.120899f, 0.019822f,
    0.091914f, 0.006996f, 0.011411f, 0.068811f, 0.075701f, 0.040891f, -0.045680f, 0.034514f,
    0.052720f, 0.003064f, -0.117312f, -0.046327f, 0.011727f, 0.019904f, 0.026118f, -0.046650f,
    0.033743f, 0.069575f, 0.065984f, -0.068411f, 0.007735f, -0.040481f, -0.065661f, -0.077067f,
    -0.066326f, -0.046854f, -0.053408f, -0.058814f, 0.035329f, -0.014931f, 0.069295f, 0.074978f,
    0.139112f, -0.059466f, -0.027647f, 0.011639f, 0.125990f, -0.022818f, -0.088454f, 0.134422f,
    0.065943f, 0.095458f, 0.019412f, -0.032372f, -0.000569f, 0.012828f, -0.027963f, -0.015490f,
    0.132264f, -0.090378f, 0.026539f, -0.007523f, 0.077987f, 0.012168f, 0.010696f, 0.041865f,
    -0.015226f, 0.037718f, 0.062715f, 0.061178f, 0.065205f, -0.020174f, -0.083590f, 0.024264f,
    0.057946f, -0.058047f, 0.032357f, -0.107423f, -0.094587f, -0.042646f, 0.018549f, -0.103699f,
    0.103148f, 0.041464f, 0.003407f, -0.028219f, -0.035590f, -0.066515f, 0.115029f, 0.011073f,
    0.057485f, -0.107274f, 0.053270f, -0.002561f, -0.033062f, -0.065170f, 0.120228f, -0.009668f,
    0.020800f, 0.059794f, -0.120381f, 0.025812f, -0.073263f, 0.057912f, -0.019412f, 0.008128f,
    -0.015270f, 0.022535f, 0.082833f, -0.048782f, 0.003065f, 0.077522f, -0.081117f, -0.144174f,
    -0.020112f, 0.054837f, -0.052982f, -0.027619f, -0.047150f, -0.072302f, -0.069079f, -0.009471f,
    0.052223f, -0.119701f, -0.019195f, 0.014294f, 0.028828f, -0.072753f, -0.098807f, -0.019063f,
    0.043205f, -0.072535f, 0.017522f, 0.050952f, -0.079008f, 0.096696f, 0.078338f, -0.028967f,
    -0.084168f, -0.012974f, -0.119803f, 0.027173f, 0.057683f, 0.065468f, 0.083605f, 0.070181f,
    0.136672f, 0.143069f, 0.002555f, -0.020092f, 0.002407f, -0.002251f, -0.002857f, 0.082990f,
    0.059721f, 0.070911f, -0.011488f, -0.041509f, -0.004906f, 0.037875f, 0.085327f, 0.060535f,
    -0.004641f, -0.104175f, 0.004347f, 0.053546f, 0.065195f, 0.004211f, -0.079501f, -0.052346f,
    -0.134542f, -0.085758f, -0.038604f, 0.130042f, -0.032953f, 0.089373f, -0.020305f, 0.000016f,
    0.008366f, -0.018039f, 0.037413f, 0.173001f, -0.021275f, -0.016256f, 0.010841f, -0.024149f,
    -0.091646f, 0.007038f, 0.146896f, -0.036008f, 0.168052f, -0.065288f, -0.030798f, 0.067309f,
    0.008493f, -0.021929f, -0.020308f, 0.056847f, -0.101418f, 0.088653f, -0.071467f, -0.005666f,
    0.008449f, -0.000713f, -0.044355f, -0.113524f, -0.039370f, -0.008657f, 0.035961f, 0.078236f,
    0.051367f, -0.094405f, 0.083229f, 0.068404f, -0.063499f, -0.101885f, 0.087778f, 0.070544f,
    -0.069309f, 0.072199f, -0.002933f, -0.076204f, 0.004167f, -0.021756f, 0.010889f, -0.006267f,
    0.052355f, -0.058612f, 0.034421f, 0.035087f, -0.029710f, 0.062157f, -0.091963f, 0.026239f,
    -0.038778f, 0.073218f, -0.073594f, 0.183148f, -0.056060f, 0.068869f, -0.099894f, -0.027810f,
    -0.022518f, -0.037870f, -0.088015f, -0.039134f, 0.074700f, -0.025654f, -0.077043f, -0.063291f,
    -0.075120f, -0.048642f, 0.014759f, -0.057367f, 0.166613f, 0.037192f, -0.159206f, 0.009522f,
    -0.047980f, 0.028051f, -0.027792f, -0.174423f, -0.098780f, 0.154002f, -0.026897f, -0.018605f,
    -0.083642f, 0.032853f, 0.012294f, -0.144266f, 0.028508f, -0.019432f, -0.006570f, -0.032684f,
    0.032495f, 0.059600f, -0.106589f, -0.113702f, 0.062513f, -0.152773f, -0.107930f, -0.054918f,
    0.028478f, -0.064483f, -0.031870f, -0.175614f, 0.136264f, -0.042390f, -0.057765f, 0.046945f,
    -0.056663f, -0.057752f, 0.013405f, 0.007664f, -0.081599f, 0.030126f, -0.015407f, -0.027329f,
    -0.032848f, -0.039284f, 0.017692f, -0.102845f, -0.049451f, 0.059392f, -0.007652f, -0.055784f,
    -0.095564f, 0.035084f, 0.023204f, -0.009455f, 0.041579f, -0.073677f, 0.038749f, -0.013132f,
    -0.139760f, -0.032181f, -0.018824f, 0.080028f, 0.066811f, -0.012027f, -0.114486f, -0.080873f,
    -0.146335f, -0.066748f, -0.009976f, -0.021589f, 0.100897f, 0.044317f, 0.016446f, -0.140276f,
    0.075411f, 0.170130f, -0.048321f, -0.019262f, -0.096834f, -0.077898f, -0.082842f, -0.084585f,
    0.000418f, 0.031324f, -0.119218f, 0.028303f, 0.030875f, 0.048848f, -0.014743f, 0.026380f,
    0.115852f, 0.073486f, -0.039896f, -0.038371f, -0.166597f, -0.073423f, 0.026450f, -0.039940f,
    0.011148f, -0.072483f, 0.035435f, -0.035759f, -0.029364f, -0.056998f, -0.027054f, -0.060067f,
    -0.071226f, 0.060609f, 0.060227f, 0.167179f, -0.053089f, 0.031472f, -0.008692f, 0.055251f,
    0.038130f, -0.015134f, 0.018928f, -0.010094f, 0.048745f, 0.057208f, 0.023784f, 0.093911f,
    0.021385f, 0.078119f, -0.071983f, -0.033997f, -0.049199f, -0.004722f, -0.073821f, 0.028922f,
    0.092854f, -0.014747f, 0.059971f, 0.062397f, -0.107714f, -0.029402f, -0.011954f, -0.112977f,
    -0.036744f, 0.088286f, 0.046141f, 0.051327f, -0.073711f, -0.008622f, 0.015602f, -0.037246f,
    0.097610f, -0.022977f, -0.143087f, 0.025098f, -0.038111f, -0.080387f, -0.073127f, -0.054377f,
    -0.037303f, 0.005338f, -0.029112f, -0.027173f, 0.126619f, 0.087320f, 0.029616f, -0.058838f,
    0.121655f, -0.016179f, -0.067050f, -0.064735f, 0.035530f, -0.006017f, 0.051200f, 0.042402f,
    0.021780f, -0.057260f, -0.008150f, 0.051895f, -0.083355f, -0.026101f, -0.008445f, -0.036460f,
    -0.098943f, -0.056393f, 0.058448f, -0.101347f, 0.016264f, 0.028082f, -0.045706f, 0.031680f,
    -0.221268f, 0.041961f, 0.003218f, 0.010882f, 0.016435f, 0.016659f, -0.188068f, -0.074839f,
    0.084007f, -0.007459f, -0.029107f, 0.047929f, -0.027940f, -0.004336f, 0.181287f, 0.071541f,
    0.076622f, -0.038722f, -0.036220f, 0.026677f, 0.018103f, 0.042936f, 0.115402f, 0.217653f,
    -0.027255f, -0.015038f, -0.071373f, -0.000813f, -0.006580f, -0.070205f, -0.027783f, 0.044021f,
    0.056158f, 0.002126f, -0.052203f, 0.101145f, 0.098455f, 0.064947f, 0.032339f, 0.057888f,
    -0.130072f, 0.054599f, 0.014430f, -0.042562f, 0.001296f, 0.025024f, 0.004202f, 0.041725f,
    0.029241f, -0.037134f, 0.018812f, -0.071397f, 0.084179f, 0.058959f, -0.121576f, -0.044780f,
    -0.074353f, 0.051396f, 0.069106f, -0.007978f, -0.000237f, -0.063344f, 0.071512f, 0.017751f,
    0.048322f, 0.069807f, 0.061366f, -0.007415f, 0.038381f, -0.000895f, -0.043978f, 0.094356f,
    0.063650f, -0.001592f, 0.046716f, 0.010986f, -0.006065f, 0.058654f, 0.123738f, 0.034578f,
    0.169040f, -0.023215f, 0.037476f, -0.035173f, -0.042466f, -0.006064f, 0.150876f, -0.040198f,
    -0.020806f, 0.058554f, -0.118963f, 0.098233f, 0.063654f, 0.051847f, 0.024435f, 0.017399f,
    -0.020178f, 0.062327f, 0.029704f, -0.041322f, 0.043367f, 0.158245f, -0.012494f, -0.041149f,
    -0.067670f, -0.004368f, -0.026970f, 0.016670f, -0.022325f, 0.033964f, 0.101413f, -0.111272f,
    -0.009127f, -0.141610f, 0.077043f, -0.049494f, 0.062376f, 0.008848f, 0.075268f, -0.087255f,
    0.097766f, 0.085357f, 0.066201f, -0.058377f, 0.105899f, -0.011158f, 0.171004f, -0.056935f,
    0.098028f, 0.068442f, 0.093178f, 0.001542f, 0.090483f, 0.010363f, 0.008226f, 0.121557f,
    -0.067570f, 0.033371f, -0.133139f, -0.078872f, 0.009507f, -0.075402f, -0.027487f, -0.055144f,
    0.077269f, 0.106848f, -0.053213f, -0.106494f, -0.014904f, 0.066011f, 0.065141f, -0.018882f,
    0.007420f, -0.065963f, 0.053284f, -0.143878f, 0.030932f, -0.135324f, 0.043317f, -0.085046f,
    -0.033669f, 0.008676f, -0.060827f, 0.121051f, 0.021826f, 0.143003f, 0.012448f, -0.111522f,
    -0.112690f, 0.108909f, 0.086212f, -0.065977f, -0.038716f, -0.013451f, 0.042088f, 0.045180f,
    0.066232f, -0.064569f, -0.093721f, 0.014784f, 0.040532f, -0.031013f, 0.071649f, 0.064754f,
    0.023537f, 0.034856f, 0.002055f, -0.057379f, 0.064934f, 0.127932f, -0.079114f, 0.009629f,
    -0.038275f, -0.003479f, -0.060427f, 0.047010f, 0.128253f, 0.080762f, -0.041495f, 0.049274f,
    -0.024487f, -0.071304f, 0.071946f, 0.042035f, 0.019023f, 0.180717f, 0.036482f, -0.031164f,
    0.045339f, 0.103187f, 0.146963f, -0.050940f, 0.051964f, -0.004210f, 0.182861f, 0.181211f,
    0.051149f, 0.021521f, 0.120636f, -0.030448f, -0.056313f, 0.027084f, -0.167906f, 0.017685f,
    0.036870f, 0.026497f, 0.176160f, 0.021987f, 0.028873f, 0.065757f, 0.045372f, 0.064006f,
    -0.018830f, 0.143826f, -0.008076f, -0.019598f, 0.014501f, 0.023140f, -0.182319f, -0.060007f,
    0.011955f, 0.036134f, 0.112624f, -0.054186f, 0.023215f, 0.052612f, -0.048702f, 0.064311f,
    0.042149f, 0.016819f, 0.079496f, -0.125120f, 0.103856f, 0.014454f, 0.093130f, 0.096076f,
    0.125578f, 0.137717f, 0.145901f, 0.019820f, 0.038780f, 0.057805f, 0.003596f, 0.076971f,
    0.140773f, -0.024107f, -0.107794f, 0.108165f, 0.006895f, 0.243182f, 0.109271f, 0.028758f,
    -0.089097f, 0.103835f, -0.032001f, 0.048938f, 0.033870f, -0.101679f, 0.008383f, 0.081529f,
    -0.006315f, -0.024941f, 0.047049f, 0.100156f, -0.007147f, 0.038087f, 0.097999f, 0.075606f,
    0.020768f, -0.122300f, 0.079615f, -0.106015f, 0.048708f, 0.037045f, -0.056026f, 0.020549f,
    0.087986f, 0.164259f, -0.127059f, -0.030425f, -0.048207f, -0.103887f, -0.012470f, 0.112345f,
    -0.016629f, -0.021568f, -0.111506f, -0.082322f, 0.003436f, -0.046693f, 0.063857f, -0.006754f,
    -0.036716f, 0.043178f, 0.159563f, 0.139815f, -0.040121f, 0.097165f, -0.009567f, 0.044822f,
    0.063363f, 0.006248f, 0.129839f, -0.046274f, -0.007824f, -0.029711f, 0.034739f, -0.035963f,
    0.004512f, 0.007264f, 0.112218f, -0.026013f, -0.164240f, 0.134958f, 0.079655f, 0.015798f,
    0.076085f, 0.056637f, 0.089925f, 0.154910f, 0.088291f, -0.083316f, 0.072064f, 0.108282f,
    -0.043744f, 0.019820f, 0.056171f, -0.062747f, 0.067786f, 0.016644f, -0.153382f, -0.015376f,
    0.012519f, 0.008999f, 0.031565f, -0.082560f, 0.014063f, 0.012106f, 0.014255f, -0.104468f,
    0.146471f, -0.008929f, -0.007338f, -0.042853f, 0.030763f, 0.019067f, 0.025738f, 0.173751f,
    0.049414f, 0.053676f, 0.088691f, 0.047248f, -0.052632f, -0.086653f, 0.001148f, -0.012325f,
    -0.087802f, -0.002129f, 0.005736f, -0.004757f, -0.022598f, 0.017204f, -0.141112f, -0.012003f,
    0.107003f, -0.006143f, 0.131563f, 0.118413f, 0.095691f, -0.074709f, -0.029122f, -0.118975f,
    0.054542f, 0.000424f, -0.026709f, -0.003298f, -0.017474f, 0.104302f, -0.037033f, -0.025529f,
    0.145824f, -0.054293f, 0.015057f, -0.039880f, 0.041271f, -0.079003f, -0.031742f, -0.026275f,
    0.111607f, 0.047033f, 0.097035f, -0.039111f, -0.077118f, -0.028987f, 0.071161f, 0.052591f,
    0.005354f, 0.074618f, 0.137455f, 0.019096f, -0.007393f, 0.020426f, -0.041557f, 0.027558f,
    0.001989f, -0.042032f, -0.062553f, -0.092273f, -0.072473f, 0.085648f, -0.009451f, 0.151546f,
    0.042734f, -0.022692f, -0.033783f, -0.011252f, -0.051452f, -0.009077f, -0.024692f, -0.001558f,
    0.009130f, 0.070339f, -0.005981f, -0.113820f, 0.106460f, -0.010148f, 0.033065f, 0.083527f,
    -0.082721f, -0.005673f, 0.034644f, -0.044532f, 0.107172f, -0.100452f, -0.087506f, 0.107272f,
    -0.020693f, 0.053247f, 0.002724f, -0.101692f, 0.018462f, 0.071817f, 0.143600f, 0.121171f,
    -0.083792f, 0.186169f, -0.059781f, 0.159273f, 0.049767f, 0.014470f, -0.009340f, -0.046065f,
    0.056684f, 0.096266f, 0.045701f, 0.047135f, 0.053012f, -0.053680f, -0.114415f, -0.061708f,
    -0.067290f, 0.024299f, -0.057666f, 0.070535f, 0.023548f, -0.000157f, -0.121056f, 0.017371f,
    0.091821f, 0.042860f, -0.018682f, 0.045557f, -0.063075f, -0.000654f, -0.050128f, 0.132484f,
    0.031104f, 0.028112f, -0.083177f, -0.064637f, 0.114278f, 0.035494f, -0.117315f, 0.002337f,
    -0.013896f, 0.087969f, 0.083016f, 0.051267f, 0.020207f, 0.039916f, 0.074898f, 0.067727f,
    -0.050598f, 0.003664f, 0.082337f, 0.065791f, -0.020024f, -0.015506f, -0.035434f, -0.113346f,
    0.021310f, -0.093081f, 0.126477f, -0.089857f, 0.011650f, -0.071801f, 0.009394f, -0.051724f,
    -0.041888f, -0.066132f, 0.126999f, -0.123306f, -0.084102f, 0.137246f, -0.014924f, -0.085819f,
    0.082556f, -0.083759f, -0.070518f, 0.007296f, -0.088961f, 0.066062f, -0.042876f, 0.045887f,
    0.096571f, -0.012191f, -0.042181f, 0.056652f, 0.062805f, -0.037167f, 0.037494f, -0.086994f,
    -0.036682f, -0.087165f, -0.073165f, -0.034546f, -0.013538f, -0.078108f, 0.038965f, 0.001415f,
    0.025318f, 0.033482f, -0.062446f, 0.018335f, -0.020039f, -0.070637f, 0.005759f, -0.054145f,
    0.087093f, -0.048568f, -0.058222f, 0.030721f, 0.028471f, 0.010522f, 0.104276f, 0.021068f,
    0.230078f, 0.028887f, 0.021180f, 0.022300f, -0.104988f, -0.043883f, 0.071223f, -0.009288f,
    0.003715f, -0.018120f, -0.070614f, -0.029128f, 0.090480f, 0.022336f, -0.024570f, -0.000363f,
    -0.029770f, 0.105446f, 0.006736f, -0.032485f, -0.000483f, -0.017133f, 0.118636f, -0.006294f,
    -0.014923f, 0.037451f, 0.072615f, 0.127606f, 0.023635f, -0.023472f, -0.081250f, 0.000965f,
    0.090204f, 0.074105f, 0.146302f, -0.059568f, -0.036304f, 0.142610f, 0.019598f, 0.010323f,
    -0.078660f, 0.055184f, 0.024762f, -0.012878f, 0.071942f, -0.041818f, 0.068738f, -0.016694f,
    0.104756f, -0.045289f, 0.029688f, -0.021342f, -0.022397f, -0.024852f, 0.085386f, 0.021795f,
    0.072917f, -0.010993f, 0.003661f, -0.149601f, -0.021198f, -0.067333f, -0.023007f, -0.051657f,
    -0.109559f, -0.011959f, -0.010336f, 0.099380f, 0.053772f, -0.012906f, -0.023016f, 0.032810f,
    0.010344f, -0.045874f, -0.086023f, 0.141913f, 0.063033f, -0.154716f, -0.021250f, 0.077913f,
    -0.251743f, 0.012788f, -0.079691f, 0.047629f, -0.030234f, 0.096909f, 0.055125f, 0.005601f,
    -0.029029f, -0.071889f, -0.006501f, -0.092715f, -0.021859f, 0.017841f, 0.051213f, 0.003428f,
    0.030782f, -0.027639f, 0.015695f, 0.028892f, 0.004581f, 0.033938f, 0.093555f, -0.000675f,
    -0.008200f, -0.009420f, 0.062585f, -0.127741f, 0.037344f, 0.046732f, 0.067084f, -0.164074f,
    -0.013527f, -0.036050f, 0.032314f, 0.102486f, -0.005171f, -0.019930f, -0.020607f, -0.039021f,
    0.059447f, -0.180703f, -0.065802f, -0.005813f, -0.013564f, -0.097709f, -0.053413f, 0.049745f,
    0.034947f, 0.053266f, -0.020528f, -0.009255f, 0.029705f, 0.048527f, -0.016283f, -0.071983f,
    -0.090568f, -0.037742f, -0.014136f, 0.010810f, -0.010574f, -0.146922f, -0.035727f, 0.020296f,
    -0.102418f, -0.004624f, -0.003086f, -0.045700f, -0.009793f, -0.113474f, -0.104241f, -0.141542f,
    -0.191318f, -0.036484f, -0.065459f, -0.058132f, 0.025559f, -0.081516f, 0.155810f, -0.018098f,
    -0.094265f, -0.012446f, -0.057325f, -0.046205f, -0.031309f, -0.087389f, -0.053677f, -0.014755f,
    0.012957f, 0.082846f, -0.002780f, 0.038907f, 0.003733f, 0.009013f, -0.026507f, -0.133567f,
    0.034109f, 0.002493f, -0.006731f, -0.019791f, -0.099604f, -0.139896f, 0.085676f, 0.017859f,
    0.035213f, -0.032809f, -0.078072f, -0.066897f, -0.160962f, -0.018095f, -0.020890f, -0.053783f,
    -0.094035f, -0.010014f, -0.089257f, 0.037360f, 0.110401f, -0.030567f, -0.022643f, 0.001321f,
    0.073023f, -0.065291f, -0.002276f, 0.050065f, -0.152605f, 0.043639f, -0.000748f, 0.121889f,
    0.019161f, -0.017399f, 0.066161f, -0.028390f, -0.009872f, -0.047602f, -0.028249f, -0.000003f,
    -0.115832f, -0.006944f, 0.050837f, 0.052648f, 0.001827f, -0.041975f, 0.045329f, 0.064720f,
    0.011497f, -0.022079f, -0.007117f, -0.007746f, 0.052542f, 0.034522f, -0.156534f, -0.072983f,
    0.112302f, 0.065360f, -0.053687f, -0.111565f, 0.050041f, 0.026557f, -0.039752f, 0.084275f,
    -0.007109f, 0.044801f, 0.011762f, 0.014457f, -0.081776f, 0.001286f, 0.004585f, 0.025818f,
    -0.070208f, 0.137695f, -0.035143f, 0.037665f, 0.150693f, 0.002392f, -0.140048f, -0.070207f,
    -0.051604f, 0.101255f, -0.067012f, 0.039592f, -0.065862f, -0.086752f, 0.001565f, -0.039968f,
    0.048295f, -0.013654f, 0.127368f, 0.088410f, -0.052088f, 0.049104f, 0.076960f, -0.042326f,
    0.086264f, 0.057188f, 0.056365f, 0.208249f, -0.082072f, 0.048425f, 0.008425f, 0.027400f,
    -0.033782f, 0.009779f, 0.065858f, 0.034141f, 0.082666f, 0.056050f, -0.076724f, -0.123716f,
    -0.077213f, -0.217608f, -0.047524f, 0.082450f, 0.001322f, 0.110054f, -0.016589f, 0.004894f,
    0.056408f, 0.125710f, 0.052512f, 0.062984f, -0.023280f, -0.017308f, 0.047671f, -0.068118f,
    -0.010866f, 0.007566f, 0.085891f, -0.149916f, 0.098702f, -0.073669f, -0.075936f, -0.036373f,
    -0.070182f, -0.042604f, -0.071714f, 0.070971f, 0.053564f, 0.002697f, -0.078978f, -0.078961f,
    -0.052879f, -0.074946f, 0.030820f, 0.082089f, 0.034083f, 0.018711f, 0.044221f, -0.089883f,
    0.007747f, 0.059820f, -0.012017f, -0.014021f, -0.100705f, -0.062544f, -0.041690f, -0.084463f,
    0.085934f, -0.069923f, 0.055365f, 0.061289f, 0.054281f, 0.065600f, -0.000718f, 0.032897f,
    0.021628f, 0.026364f, 0.033382f, 0.032003f, -0.047303f, -0.024717f, 0.010706f, 0.043370f,
    0.024246f, 0.015014f, 0.010053f, 0.056183f, 0.020955f, -0.139470f, 0.114413f, 0.036707f,
    0.006691f, -0.026617f, 0.013402f, 0.077620f, -0.088983f, 0.092030f, -0.043363f, 0.013350f,
    0.066773f, 0.033797f, 0.034562f, 0.028962f, -0.025525f, 0.162533f, -0.045451f, -0.146494f,
    0.151387f, 0.058403f, -0.046393f, -0.000156f, 0.214483f, -0.041864f, 0.183559f, 0.015031f,
    0.058689f, -0.000068f, -0.059235f, -0.085590f, 0.041152f, -0.054424f, 0.086949f, -0.071553f,
    -0.001511f, -0.008668f, 0.021499f, -0.009448f, -0.070286f, 0.108986f, 0.063986f, 0.059643f,
    0.120644f, -0.062208f, 0.052587f, 0.017426f, -0.035686f, -0.072060f, 0.036549f, 0.051422f,
    0.049935f, 0.017096f, -0.000119f, 0.000264f, 0.000848f, -0.115885f, -0.020633f, -0.001105f,
    0.162947f, 0.020491f, 0.053712f, 0.038439f, 0.130537f, -0.002772f, -0.070690f, 0.137340f,
    0.160514f, -0.079065f, -0.019359f, -0.020196f, -0.033693f, 0.002555f, 0.116163f, -0.028074f,
    -0.011901f, -0.038158f, 0.015414f, -0.066774f, -0.021993f, -0.018925f, 0.063996f, -0.022397f,
    -0.070783f, -0.045704f, -0.027527f, 0.099694f, 0.065419f, -0.040328f, 0.016222f, 0.129384f,
    0.058562f, -0.030338f, 0.081122f, 0.002340f, -0.022939f, -0.002401f, 0.033929f, -0.045909f,
    -0.080537f, 0.095083f, -0.048816f, 0.069913f, -0.094192f, 0.081768f, -0.052354f, -0.097527f,
    0.103940f, 0.044029f, 0.016580f, -0.101062f, 0.032951f, -0.128375f, 0.106293f, 0.045112f,
    0.028323f, 0.024545f, -0.039730f, 0.087398f, -0.016250f, 0.093328f, 0.046205f, 0.022915f,
    0.167803f, -0.071402f, 0.023956f, 0.041924f, 0.072562f, -0.117455f, -0.035731f, 0.015307f,
    -0.093140f, 0.009196f, 0.080490f, -0.010320f, -0.033835f, 0.041121f, -0.035984f, 0.135207f,
    -0.084947f, -0.036571f, 0.065162f, -0.012329f, -0.013270f, -0.102487f, -0.050215f, 0.105183f,
    0.077055f, 0.057422f, 0.064455f, 0.010574f, 0.077847f, -0.060300f, -0.027422f, 0.003274f,
    -0.022154f, -0.035749f, -0.057357f, -0.033692f, 0.096260f, 0.111197f, 0.039057f, 0.062560f,
    0.030775f, 0.107885f, -0.065228f, 0.058895f, -0.010463f, 0.046746f, -0.042831f, -0.037787f,
    0.126693f, -0.023896f, -0.056669f, -0.116460f, 0.144064f, -0.091172f, 0.010025f, 0.042635f,
    -0.036481f, 0.115909f, 0.148744f, -0.070274f, -0.038542f, 0.041313f, -0.133837f, -0.055788f,
    -0.036134f, 0.105131f, 0.094238f, 0.025958f, -0.062050f, -0.075629f, 0.071121f, 0.044271f,
    -0.041045f, -0.031338f, 0.031716f, -0.041004f, -0.009056f, 0.059360f, 0.097037f, 0.084320f,
    -0.016372f, 0.012012f, -0.019399f, 0.084412f, 0.040075f, 0.016255f, -0.085880f, -0.016058f,
    -0.101332f, 0.023503f, -0.059935f, 0.147038f, -0.016447f, -0.067003f, 0.067072f, -0.023800f,
    -0.159718f, -0.042299f, 0.119959f, 0.040244f, 0.067300f, 0.057149f, -0.004859f, 0.037720f,
    0.071008f, -0.039122f, -0.044582f, -0.013918f, 0.106078f, 0.019071f, 0.067564f, -0.109923f,
    0.089950f, 0.051280f, -0.051331f, -0.084917f, 0.001391f, 0.029339f, 0.024274f, -0.061364f,
    0.143114f, 0.005036f, 0.135931f, 0.107685f, 0.102548f, 0.049176f, 0.051105f, 0.024466f,
    0.070704f, -0.090161f, 0.061638f, -0.007659f, 0.064785f, 0.081789f, 0.019749f, -0.066975f,
    0.084760f, 0.109792f, -0.040353f, -0.006505f, -0.043214f, 0.052519f, -0.084603f, 0.040397f,
    0.076287f, 0.052449f, -0.008422f, -0.027760f, 0.033954f, 0.042263f, 0.074720f, 0.024379f,
    -0.050080f, 0.013630f, -0.069624f, -0.017532f, 0.009343f, -0.024293f, 0.080418f, -0.014416f,
    0.083469f, -0.015463f, 0.061522f, -0.019969f, 0.052534f, -0.012333f, -0.033587f, 0.029067f,
    0.046926f, -0.051946f, 0.036623f, -0.026264f, -0.060774f, 0.008627f, -0.012444f, 0.038939f,
    0.126546f, 0.023696f, 0.126372f, 0.023542f, 0.087537f, -0.029400f, 0.094572f, 0.030115f,
    0.063802f, 0.015193f, 0.045549f, -0.054145f, -0.005811f, -0.053817f, -0.035239f, 0.002871f,
    -0.013885f, 0.077294f, 0.068519f, -0.098076f, 0.105996f, -0.067111f, -0.057387f, 0.069864f,
    -0.054348f, -0.100568f, -0.035247f, -0.002700f, -0.089633f, -0.066140f, 0.057847f, 0.138099f,
    -0.004085f, -0.010632f, 0.119244f, -0.074431f, 0.035550f, 0.036233f, -0.137537f, 0.003901f,
    -0.054370f, 0.125929f, 0.036431f, 0.088445f, 0.064633f, -0.104958f, 0.070465f, 0.110077f,
    0.001455f, 0.003901f, 0.183508f, 0.109630f, 0.109504f, 0.005237f, 0.075198f, 0.014592f,
    0.098108f, 0.034094f, -0.097678f, 0.081611f, -0.064441f, 0.091112f, 0.118238f, 0.026960f,
    -0.009672f, 0.017785f, -0.102522f, 0.013044f, -0.045113f, -0.065294f, 0.071984f, 0.064546f,
    0.010173f, -0.101505f, 0.030260f, -0.024310f, -0.036670f, -0.150248f, -0.006958f, -0.006878f,
    0.024213f, -0.028998f, 0.025039f, -0.009217f, 0.080930f, 0.035624f, -0.042578f, 0.151175f,
    -0.068057f, -0.032535f, -0.025452f, -0.047244f, 0.010184f, 0.010047f, -0.047659f, 0.084780f,
    0.111360f, -0.059889f, -0.009914f, -0.047628f, 0.053878f, 0.043594f, 0.034153f, 0.037541f,
    0.115566f, -0.105999f, 0.095295f, -0.038108f, 0.085738f, -0.018569f, -0.045765f, -0.055510f,
    -0.059047f, 0.012754f, 0.005102f, 0.101499f, 0.018001f, -0.092639f, 0.005190f, -0.028478f,
    -0.063112f, 0.062725f, -0.136263f, 0.050520f, -0.001362f, 0.097947f, 0.054361f, 0.001574f,
    0.024446f, 0.066989f, -0.133814f, 0.060344f, 0.015966f, -0.049483f, 0.040784f, 0.003762f,
    -0.030162f, 0.073806f, 0.173124f, -0.056877f, 0.075182f, -0.028872f, 0.014253f, 0.058177f,
    0.058310f, -0.056333f, 0.026538f, -0.038620f, -0.008176f, -0.003567f, -0.062197f, 0.085505f,
    0.008871f, 0.002608f, -0.057437f, -0.067844f, -0.050443f, -0.005128f, 0.045829f, 0.114364f,
    -0.074403f, -0.011987f, -0.005493f, 0.117703f, 0.028365f, -0.000051f, 0.079285f, -0.080323f,
    0.056759f, 0.026753f, 0.051626f, 0.133705f, 0.017585f, 0.010335f, -0.012668f, 0.039240f,
    -0.006849f, 0.027407f, -0.062831f, -0.034534f, 0.128692f, -0.013920f, 0.000555f, 0.038479f,
    -0.020113f, -0.032566f, -0.064961f, 0.131528f, -0.066533f, -0.060816f, -0.018762f, -0.058371f,
    0.065068f, -0.109999f, 0.010651f, -0.119989f, 0.063242f, -0.047265f, -0.048435f, -0.025432f,
    -0.031202f, -0.065455f, 0.010941f, -0.046827f, 0.024015f, -0.115117f, -0.000483f, -0.121821f,
    -0.024337f, 0.022136f, 0.016555f, 0.038197f, 0.025434f, 0.051685f, -0.087635f, 0.175107f,
    -0.041009f, 0.117354f, -0.056168f, -0.066298f, -0.035890f, 0.091537f, -0.014301f, -0.087767f,
    -0.004171f, -0.057605f, -0.046836f, 0.122970f, 0.040208f, 0.079694f, -0.197569f, 0.035536f,
    -0.101536f, 0.055671f, 0.010170f, 0.044443f, -0.113095f, 0.018491f, 0.187319f, -0.105439f,
    0.058675f, -0.021026f, 0.027619f, -0.114094f, -0.060667f, 0.014814f, -0.072160f, 0.002536f,
    0.004931f, 0.056376f, -0.025586f, 0.082953f, 0.049353f, 0.032781f, -0.018230f, 0.038173f,
    -0.012519f, -0.007047f, 0.128710f, -0.057596f, 0.074530f, -0.131312f, -0.027998f, 0.112345f,
    0.124398f, -0.027837f, 0.023810f, -0.022922f, 0.018255f, -0.017923f, 0.033092f, 0.067393f,
    0.132624f, 0.000912f, 0.075786f, 0.049447f, 0.087891f, 0.003450f, 0.004283f, -0.004538f,
    0.006013f, -0.067622f, 0.070370f, 0.061874f, 0.048612f, 0.005106f, 0.047720f, 0.049275f,
    -0.080940f, -0.023913f, -0.108301f, -0.084965f, 0.057917f, -0.063266f, -0.053668f, 0.009426f,
    0.019327f, 0.017190f, 0.049426f, 0.082233f, -0.019341f, 0.085326f, 0.003634f, -0.055151f,
    0.061765f, -0.012944f, 0.078160f, 0.083215f, 0.123170f, 0.124454f, -0.126777f, 0.086929f,
    0.016630f, -0.114237f, -0.006209f, 0.030511f, -0.039282f, -0.080748f, -0.110690f, -0.071514f,
    -0.127960f, -0.098397f, 0.038501f, -0.093056f, -0.016365f, -0.075730f, -0.122988f, 0.016211f,
    -0.008562f, -0.015801f, 0.110247f, 0.093831f, 0.063672f, 0.020531f, -0.007854f, -0.015444f,
    0.081669f, 0.011691f, 0.088961f, 0.084788f, -0.016546f, -0.014437f, -0.013331f, 0.026439f,
    -0.061380f, 0.033192f, -0.010931f, 0.027889f, 0.079019f, -0.017787f, -0.017307f, -0.017296f,
    0.053359f, 0.044276f, -0.038763f, 0.018874f, 0.065416f, -0.036814f, -0.029240f, -0.065006f,
    0.010905f, 0.004296f, 0.005541f, -0.137700f, -0.029068f, 0.074727f, 0.013498f, 0.022189f,
    0.043661f, -0.026385f, -0.026163f, -0.085885f, 0.035177f, -0.015951f, 0.004960f, 0.026157f,
    0.029038f, -0.055453f, 0.017891f, 0.003394f, 0.072322f, 0.085723f, -0.146925f, -0.017526f,
    -0.021890f, -0.039162f, 0.145202f, -0.021022f, 0.097233f, 0.022881f, -0.048798f, 0.118394f,
    0.013116f, 0.128649f, -0.007208f, 0.013114f, 0.020640f, 0.000929f, -0.035709f, 0.068572f,
    -0.016769f, -0.048681f, -0.002457f, 0.089893f, -0.050757f, 0.048916f, 0.006299f, 0.089840f,
    0.060710f, 0.091074f, -0.006775f, 0.052695f, 0.070656f, 0.123776f, -0.082665f, -0.034748f,
    0.020793f, 0.044312f, 0.039916f, 0.066015f, -0.078017f, -0.149455f, -0.032405f, -0.076499f,
    -0.039135f, 0.033121f, -0.162936f, 0.013720f, -0.058931f, -0.020274f, 0.159822f, 0.012191f,
    0.096409f, 0.029344f, 0.023994f, -0.005471f, -0.141964f, -0.001907f, -0.002276f, 0.045083f,
    -0.044485f, -0.020959f, 0.044532f, -0.092288f, 0.073586f, -0.018582f, 0.022330f, -0.067352f,
    -0.077716f, -0.008366f, 0.121172f, -0.036609f, -0.172899f, 0.033381f, 0.086651f, 0.059514f,
    -0.106883f, 0.094195f, 0.002581f, -0.113088f, -0.092690f, -0.012667f, -0.121129f, 0.131061f,
    -0.059860f, 0.057205f, -0.080501f, 0.049489f, 0.072054f, 0.161489f, 0.085074f, 0.022850f,
    -0.167560f, 0.035406f, 0.017060f, -0.093644f, 0.022352f, -0.020094f, 0.024197f, -0.065310f,
    -0.015421f, -0.041370f, -0.045707f, -0.051362f, -0.059475f, 0.015179f, -0.028494f, 0.042118f,
    -0.046684f, 0.051768f, -0.015192f, 0.024421f, -0.044922f, 0.027690f, -0.059749f, -0.056801f,
    -0.024457f, 0.074018f, -0.000021f, -0.037017f, 0.035065f, -0.097005f, 0.183196f, 0.076305f,
    -0.050278f, 0.094341f, 0.010593f, -0.016206f, 0.041520f, -0.071437f, -0.090890f, 0.079929f,
    -0.023771f, 0.053878f, -0.042553f, -0.121075f, -0.027658f, 0.034736f, 0.013173f, 0.016186f,
    -0.023034f, -0.057305f, 0.051594f, -0.065387f, 0.005707f, 0.025257f, 0.085188f, 0.133450f,
    0.078195f, 0.043287f, -0.034690f, -0.021699f, -0.013571f, -0.071725f, 0.133866f, 0.011846f,
    0.003992f, 0.071006f, -0.003850f, -0.054821f, 0.087020f, 0.072448f, -0.107458f, -0.114562f,
    -0.050902f, -0.024841f, -0.104755f, 0.065928f, -0.047109f, 0.040476f, 0.025052f, -0.064407f,
    0.086630f, 0.120199f, -0.018180f, -0.005034f, -0.028787f, 0.004089f, -0.074376f, -0.027434f,
    -0.017861f, 0.026180f, -0.018790f, -0.067908f, 0.057063f, 0.010664f, 0.031990f, 0.055686f,
    -0.088148f, 0.076233f, 0.024110f, 0.034583f, 0.059355f, -0.070750f, -0.001212f, 0.002331f,
    -0.046431f, -0.027713f, 0.035451f, 0.058397f, -0.105935f, 0.086115f, -0.141368f, 0.001993f,
    -0.017144f, -0.019292f, -0.008959f, 0.073364f, -0.090360f, 0.007524f, -0.125785f, 0.020420f,
    0.026378f, 0.046041f, -0.058410f, 0.038137f, -0.064022f, 0.008087f, 0.084659f, -0.009314f,
    0.033938f, -0.032177f, -0.072389f, -0.092498f, 0.034796f, -0.028395f, -0.068070f, -0.272894f,
    -0.103386f, 0.019918f, -0.067566f, -0.071183f, -0.072525f, 0.041491f, 0.113851f, 0.009788f,
    -0.024861f, -0.032585f, -0.074439f, 0.009383f, -0.038640f, 0.004215f, -0.080641f, -0.052145f,
    0.115286f, -0.051899f, 0.007985f, -0.050052f, -0.054247f, 0.045884f, 0.003108f, 0.005189f,
    0.056799f, -0.001198f, -0.009552f, -0.090662f, -0.001205f, -0.036999f, -0.059495f, 0.055323f,
    -0.128992f, 0.003304f, 0.109564f, -0.028668f, -0.089227f, 0.087640f, -0.022050f, 0.018353f,
    -0.020841f, 0.092585f, -0.056563f, 0.007265f, -0.048229f, -0.016167f, 0.045807f, -0.172296f,
    -0.026053f, -0.007651f, 0.050687f, -0.031029f, -0.045302f, -0.008158f, 0.015023f, 0.041920f,
    -0.074774f, -0.062745f, 0.005842f, 0.011190f, 0.045749f, 0.042283f, 0.033257f, 0.019356f,
    0.002844f, -0.051081f, -0.177547f, -0.021011f, -0.021781f, 0.076216f, 0.058838f, -0.015385f,
    -0.019499f, -0.035723f, -0.062113f, -0.168431f, 0.113002f, -0.103942f, -0.008308f, 0.004415f,
    0.058778f, 0.022716f, -0.113448f, -0.017669f, -0.110919f, -0.032500f, 0.145109f, 0.032602f,
    -0.131589f, 0.024676f, -0.044425f, 0.005516f, 0.059413f, 0.047476f, -0.046347f, -0.114678f,
    0.010085f, -0.103601f, 0.070993f, -0.012953f, 0.098266f, 0.066330f, -0.037894f, 0.085675f,
    -0.069961f, -0.018793f, -0.009349f, -0.000065f, 0.169475f, 0.075619f, 0.039537f, -0.015513f,
    -0.035800f, -0.087318f, -0.141672f, -0.083751f, -0.058345f, 0.052795f, -0.066173f, 0.113395f,
    0.073262f, 0.002250f, 0.013084f, 0.075229f, 0.047138f, 0.038001f, -0.039839f, 0.038318f,
    -0.005545f, 0.013774f, 0.059433f, 0.003201f, 0.020100f, 0.021949f, -0.008459f, -0.066278f,
    -0.062288f, -0.024502f, 0.008410f, 0.040891f, -0.039829f, -0.038546f, 0.016599f, -0.112429f,
    0.038894f, 0.067485f, 0.095130f, -0.010662f, 0.125367f, 0.023302f, 0.055162f, 0.096282f,
    -0.066300f, 0.066219f, 0.029649f, -0.022695f, 0.027100f, -0.020535f, -0.053312f, 0.076005f,
    -0.147673f, -0.032268f, 0.072705f, -0.043858f, -0.017718f, 0.013598f, 0.032927f, -0.007873f,
    -0.158620f, -0.123747f, -0.000822f, 0.077595f, 0.046019f, 0.071115f, -0.024156f, -0.013948f,
    -0.085362f, 0.108888f, -0.017120f, -0.062417f, -0.035916f, 0.018675f, 0.018306f, -0.025202f,
    0.105077f, -0.024862f, -0.051343f, -0.076518f, -0.153829f, 0.022881f, -0.046187f, -0.036180f,
    -0.112669f, 0.029897f, -0.096957f, -0.013123f, -0.057845f, -0.028981f, 0.019825f, -0.096069f,
    0.071280f, -0.011501f, -0.096856f, -0.029894f, -0.093196f, -0.038112f, -0.056461f, -0.007088f,
    -0.097655f, -0.063506f, 0.034393f, 0.044951f, -0.049987f, -0.184124f, -0.113296f, -0.107235f,
    0.090672f, 0.042875f, 0.084757f, -0.006417f, -0.020877f, 0.055986f, 0.061997f, -0.172837f,
    0.020247f, -0.071574f, 0.015030f, 0.041693f, -0.082446f, 0.033637f, -0.059996f, 0.118217f,
    0.018625f, 0.009379f, 0.053285f, -0.094341f, 0.030966f, -0.221126f, -0.031411f, -0.107404f,
    0.072829f, 0.030938f, -0.024397f, -0.092021f, 0.075055f, 0.128583f, -0.063881f, -0.004507f,
    0.079838f, -0.085842f, 0.055780f, -0.004620f, -0.091210f, 0.010717f, -0.067767f, 0.013082f,
    0.026715f, -0.005287f, -0.056801f, -0.003936f, 0.103451f, 0.060071f, 0.192326f, 0.066128f,
    0.000626f, 0.077228f, 0.099471f, 0.046028f, 0.024706f, -0.025715f, -0.019165f, 0.081001f,
    0.000738f, -0.114124f, 0.051433f, -0.013618f, 0.115600f, -0.024628f, -0.008641f, 0.017096f,
    -0.059623f, 0.026910f, 0.150503f, 0.076706f, 0.007220f, -0.024246f, 0.070513f, 0.006315f,
    0.083115f, -0.123931f, -0.002899f, 0.069768f, 0.113317f, 0.058445f, -0.000352f, 0.086290f,
    -0.118432f, -0.093933f, -0.043182f, 0.108004f, -0.013347f, -0.055775f, -0.049123f, -0.084322f,
    -0.025021f, 0.058517f, 0.008438f, -0.020527f, 0.011954f, -0.017302f, 0.044553f, 0.080395f,
    -0.247991f, -0.024942f, 0.092795f, 0.042746f, 0.078104f, -0.113123f, 0.063448f, -0.001640f,
    -0.015536f, -0.030876f, 0.012792f, 0.013057f, -0.001549f, 0.057733f, 0.002913f, 0.053076f,
    -0.008019f, 0.068855f, 0.000071f, 0.094786f, 0.066288f, -0.036546f, 0.051722f, -0.049084f,
    0.000739f, 0.025853f, 0.079186f, 0.000453f, 0.100481f, 0.026855f, 0.048185f, -0.020528f,
    -0.042466f, -0.110498f, -0.027086f, -0.072946f, 0.034123f, 0.001236f, 0.112503f, -0.128046f,
    -0.046968f, 0.103075f, -0.031400f, -0.036094f, -0.125037f, -0.012782f, 0.006917f, -0.050987f,
    0.023602f, -0.005940f, 0.076686f, -0.085670f, -0.036370f, -0.059484f, 0.042245f, 0.049891f,
    0.073211f, -0.030148f, 0.103209f, 0.078355f, -0.035421f, -0.039869f, -0.011248f, -0.016391f,
    -0.055957f, 0.138529f, 0.056341f, -0.037493f, 0.012440f, -0.020559f, 0.006929f, 0.046871f,
    -0.073440f, -0.025524f, -0.086566f, 0.004095f, 0.044919f, 0.049567f, -0.044432f, -0.100518f,
    -0.209348f, 0.062588f, 0.088412f, -0.001522f, -0.059504f, -0.017328f, -0.182927f, -0.024198f,
    0.042203f, -0.069670f, 0.040030f, -0.007058f, -0.055627f, 0.054956f, -0.023579f, 0.023839f,
    0.013973f, -0.077976f, -0.053038f, -0.025865f, -0.118130f, -0.006147f, 0.021541f, 0.031874f,
    0.048920f, -0.038992f, -0.025666f, 0.025351f, 0.034891f, 0.087890f, 0.045460f, -0.108364f,
    -0.049084f, -0.022939f, 0.041389f, 0.012896f, -0.031114f, 0.006284f, 0.004551f, -0.010616f,
    0.103103f, -0.038086f, 0.013615f, 0.020446f, 0.020625f, -0.074969f, 0.003879f, 0.081596f,
    -0.080055f, 0.026727f, 0.034834f, -0.032186f, 0.112290f, -0.010369f, -0.076466f, 0.054093f,
    0.043378f, -0.061908f, 0.003389f, -0.144480f, 0.011821f, 0.050028f, -0.042646f, 0.037933f,
    -0.081595f, 0.066995f, 0.039495f, -0.000973f, 0.075564f, 0.009422f, -0.074079f, 0.182642f,
    0.071570f, -0.138301f, 0.081349f, 0.065550f, 0.078884f, 0.065117f, 0.058225f, -0.084981f,
    0.108166f, -0.009430f, 0.060273f, 0.064244f, 0.108181f, -0.117766f, -0.122314f, -0.043078f,
    0.018644f, 0.029444f, 0.057858f, -0.057923f, 0.027946f, 0.078067f, -0.040002f, -0.087548f,
    0.018416f, 0.012234f, 0.147751f, -0.214319f, -0.042792f, -0.061181f, -0.138448f, -0.049886f,
    -0.045544f, 0.035183f, -0.132479f, 0.084263f, 0.026073f, -0.024576f, -0.022629f, -0.124730f,
    0.026724f, -0.105763f, 0.085673f, 0.010472f, -0.046703f, 0.004703f, -0.016728f, -0.128523f,
    -0.025788f, 0.057294f, -0.099884f, -0.020279f, -0.059414f, -0.003721f, 0.069537f, -0.033794f,
    -0.026593f, 0.060970f, 0.010007f, 0.010050f, -0.047700f, -0.052260f, -0.029544f, -0.024822f,
    -0.118175f, -0.074692f, 0.050228f, -0.052890f, 0.007894f, -0.073052f, 0.013154f, 0.044813f,
    0.012165f, -0.001642f, -0.028832f, 0.000923f, 0.005319f, -0.139062f, 0.024595f, 0.025027f,
    -0.114296f, 0.026442f, -0.061165f, -0.065939f, -0.085227f, 0.048353f, -0.131796f, -0.058145f,
    0.079887f, 0.113333f, -0.021938f, 0.127101f, 0.086553f, 0.038645f, -0.000449f, -0.013947f,
    0.027687f, 0.024998f, 0.006575f, 0.070263f, -0.041660f, -0.034667f, -0.003165f, -0.027342f,
    0.035233f, 0.058600f, 0.050445f, -0.058147f, -0.109751f, 0.088579f, -0.100163f, 0.009545f,
    -0.033739f, 0.049178f, 0.028585f, 0.142052f, -0.117925f, 0.026499f, 0.014127f, -0.028617f,
    -0.090692f, 0.030814f, 0.057404f, 0.053810f, 0.042597f, 0.016019f, 0.048228f, -0.011878f,
    -0.035542f, -0.045218f, -0.008351f, -0.071965f, -0.016483f, -0.045110f, 0.085121f, 0.024296f,
    -0.032196f, 0.079910f, -0.062004f, -0.017547f, -0.030554f, 0.013225f, -0.035418f, -0.033293f,
    0.016957f, -0.068323f, 0.067748f, -0.001907f, -0.014518f, 0.000452f, -0.015184f, 0.002814f,
    0.063428f, 0.057534f, 0.037664f, 0.007975f, 0.074903f, -0.104636f, -0.045721f, -0.029357f,
    -0.071260f, 0.053120f, -0.053034f, 0.070411f, -0.086102f, -0.003701f, -0.069082f, -0.026382f,
    -0.031717f, -0.081849f, 0.015328f, -0.086059f, 0.063030f, -0.093507f, 0.020084f, 0.060769f,
    0.006965f, 0.154028f, 0.003400f, -0.054310f, -0.004457f, -0.132055f, 0.061200f, 0.060511f,
    0.119279f, -0.061869f, 0.012712f, 0.000012f, -0.058249f, 0.069120f, -0.151793f, -0.015404f,
    0.030721f, 0.058721f, 0.058960f, 0.033754f, 0.050239f, 0.078793f, -0.031961f, -0.012578f,
    -0.165237f, -0.129281f, 0.078119f, 0.062412f, -0.045292f, -0.188619f, -0.105161f, 0.087804f,
    0.010315f, 0.006748f, 0.003715f, -0.198042f, -0.124086f, -0.002322f, -0.170842f, -0.043383f,
    0.011017f, 0.038601f, -0.048483f, -0.023363f, -0.017887f, -0.019357f, 0.112733f, -0.073113f,
    -0.125566f, -0.013102f, -0.059018f, -0.052243f, 0.048908f, 0.141024f, -0.012024f, 0.076752f,
    0.051009f, 0.025739f, -0.014173f, 0.061749f, 0.025314f, 0.050786f, -0.077583f, -0.135549f,
    -0.052000f, 0.105413f, -0.079074f, 0.020067f, -0.015275f, 0.118840f, 0.046026f, -0.044327f,
    0.100440f, -0.051892f, -0.075700f, 0.033029f, -0.078006f, 0.044259f, 0.080512f, -0.007377f,
    0.025707f, -0.041476f, -0.062813f, 0.008463f, 0.075223f, -0.043544f, 0.032161f, 0.045668f,
    -0.115741f, -0.017510f, -0.071462f, 0.057925f, 0.070191f, -0.007605f, -0.029724f, -0.021151f,
    0.034054f, 0.026792f, -0.108900f, -0.039180f, 0.031998f, 0.090481f, 0.003762f, -0.090224f,
    0.014185f, -0.058351f, -0.101006f, 0.114706f, -0.089051f, -0.032939f, -0.034595f, 0.001650f,
    0.126577f, -0.108662f, -0.032668f, 0.005293f, 0.091274f, -0.116584f, -0.042811f, 0.058661f,
    -0.134648f, 0.133614f, 0.126724f, 0.001954f, 0.114995f, -0.011923f, -0.030073f, -0.085693f,
    -0.003357f, 0.148835f, -0.062074f, -0.048839f, 0.027616f, 0.029510f, 0.046135f, 0.016677f,
    -0.040085f, 0.048791f, -0.070497f, -0.045440f, -0.032612f, -0.037783f, 0.018644f, 0.128396f,
    0.037727f, 0.015779f, 0.017456f, 0.003012f, -0.112865f, 0.007275f, -0.060707f, 0.069572f,
    -0.106152f, -0.000599f, -0.009540f, 0.003511f, -0.008517f, 0.018748f, 0.050804f, -0.010275f,
    -0.105054f, -0.066344f, -0.126727f, -0.042895f, 0.015405f, -0.082810f, 0.066114f, 0.108304f,
    0.014970f, -0.006032f, -0.015737f, 0.063189f, -0.128696f, 0.179064f, 0.019118f, 0.024788f,
    0.031291f, -0.110127f, -0.047872f, 0.010221f, 0.011992f, -0.029090f, -0.029071f, -0.003941f,
    -0.052886f, 0.065427f, 0.096944f, -0.033317f, -0.071941f, 0.010778f, -0.059170f, -0.098569f,
    0.135833f, -0.024482f, -0.063319f, -0.059020f, 0.145631f, 0.069182f, 0.041360f, 0.092939f,
    0.062536f, 0.033078f, -0.083329f, 0.040467f, -0.060385f, 0.070371f, 0.068475f, 0.072910f,
    0.065683f, -0.003693f, -0.029022f, -0.054031f, -0.072500f, 0.003968f, 0.088529f, -0.000156f,
    -0.064487f, 0.016029f, -0.004695f, -0.082535f, 0.034102f, -0.066306f, 0.014775f, 0.072579f,
    -0.052735f, 0.105463f, 0.036281f, -0.068521f, -0.050943f, 0.076612f, 0.020148f, -0.014593f,
    -0.038479f, -0.001656f, 0.090524f, -0.032915f, -0.031464f, -0.115741f, -0.076147f, -0.051663f,
    0.080166f, 0.123898f, 0.024002f, 0.178222f, 0.009183f, 0.108447f, -0.002271f, -0.040323f,
    -0.095189f, 0.180004f, 0.098263f, -0.060933f, 0.087244f, -0.011350f, 0.014218f, 0.096618f,
    -0.093776f, 0.069344f, -0.087031f, -0.055615f, 0.090328f, -0.118057f, -0.019000f, -0.150252f,
    -0.073428f, 0.062639f, 0.025491f, -0.009313f, -0.047745f, -0.006966f, 0.001774f, 0.004610f,
    0.112123f, 0.063341f, -0.092471f, 0.081485f, -0.016983f, 0.037917f, -0.016524f, 0.066540f,
    0.031309f, 0.014947f, 0.022772f, 0.027744f, 0.021941f, -0.171543f, -0.014963f, 0.067819f,
    -0.005553f, -0.034866f, 0.041626f, 0.049415f, -0.036259f, 0.039366f, -0.010442f, -0.022268f,
    -0.053539f, 0.061249f, -0.120255f, 0.088050f, 0.001579f, -0.042961f, 0.016408f, -0.016079f,
    -0.092962f, 0.043024f, -0.100870f, 0.069307f, -0.023530f, -0.014706f, 0.021655f, 0.186691f,
    0.072765f, 0.046353f, 0.042923f, 0.048747f, 0.053607f, 0.054335f, -0.069659f, -0.041757f,
    -0.069066f, 0.044720f, 0.029356f, 0.104510f, 0.044199f, -0.025932f, -0.091578f, 0.016405f,
    -0.113852f, 0.118331f, 0.083408f, -0.012589f, -0.002616f, 0.012185f, -0.094944f, -0.035495f,
    0.109679f, -0.041451f, -0.130882f, -0.037029f, -0.045371f, -0.056024f, -0.022693f, -0.061405f,
    -0.001652f, -0.015968f, 0.034598f, -0.013954f, 0.100689f, 0.051777f, -0.154814f, 0.041563f,
    0.027999f, 0.030307f, -0.037307f, 0.042371f, -0.143454f, 0.046863f, -0.026594f, -0.126587f,
    -0.059470f, 0.039416f, -0.072677f, 0.045076f, 0.022486f, -0.048842f, 0.036556f, -0.049119f,
    -0.034907f, -0.019028f, 0.172216f, 0.005042f, -0.063981f, 0.059783f, -0.012839f, -0.032085f,
    -0.101529f, 0.048892f, -0.019395f, -0.052158f, 0.093148f, 0.016369f, 0.059419f, 0.012992f,
    -0.013225f, -0.045850f, 0.026070f, -0.015131f, -0.074711f, 0.039515f, -0.017816f, 0.049154f,
    -0.113607f, -0.097279f, -0.036940f, -0.005014f, 0.024220f, 0.142897f, 0.030585f, 0.035343f,
    -0.007435f, -0.018568f, -0.040313f, -0.033866f, -0.005232f, 0.036836f, 0.038585f, 0.119746f,
    0.012118f, 0.012511f, -0.046559f, -0.051127f, -0.040389f, -0.031923f, -0.016776f, 0.051212f,
    -0.010415f, 0.108884f, 0.030415f, -0.124115f, -0.022184f, -0.113634f, 0.050062f, -0.122033f,
    0.033689f, -0.045100f, -0.149851f, 0.008226f, -0.005869f, -0.068706f, -0.017851f, -0.026907f,
    -0.017466f, 0.049354f, 0.105523f, 0.053490f, -0.061384f, -0.033197f, 0.076305f, 0.080283f,
    -0.071292f, -0.025227f, 0.059238f, 0.070790f, -0.034255f, 0.083308f, -0.084077f, -0.169557f,
    0.078277f, -0.057327f, -0.027007f, 0.035400f, 0.033036f, 0.060847f, 0.094513f, 0.017255f,
    0.038351f, 0.092380f, 0.039090f, 0.118829f, 0.005323f, 0.097413f, 0.025806f, 0.126103f,
    -0.047679f, 0.062412f, -0.055677f, 0.037557f, 0.032635f, 0.223713f, -0.039693f, -0.028777f,
    -0.038333f, 0.056000f, 0.013250f, -0.087278f, 0.138311f, -0.002909f, 0.027387f, -0.052012f,
    0.055037f, -0.058031f, 0.212456f, -0.037690f, 0.045629f, -0.119156f, 0.061914f, 0.071981f,
    0.046914f, 0.091381f, 0.010216f, -0.046522f, 0.110682f, -0.085715f, -0.063934f, -0.023930f,
    -0.017916f, 0.018748f, -0.126990f, -0.040984f, 0.157643f, -0.100616f, -0.006044f, -0.089847f,
    0.105647f, 0.143761f, 0.010969f, -0.096599f, -0.020064f, 0.041697f, 0.072347f, -0.065026f,
    -0.105179f, -0.140616f, 0.076444f, -0.004773f, 0.011373f, -0.022144f, 0.029826f, -0.003710f,
    -0.018580f, -0.178826f, 0.089050f, 0.040674f, -0.050646f, 0.024514f, 0.051665f, -0.071679f,
    0.067093f, 0.000110f, -0.124578f, -0.084721f, 0.027280f, 0.077069f, -0.058838f, -0.143085f,
    -0.068259f, -0.001622f, -0.010130f, -0.041330f, 0.038714f, -0.011964f, -0.050179f, 0.064075f,
    0.020494f, 0.047235f, -0.064426f, -0.178086f, 0.044938f, 0.089168f, -0.091614f, -0.106289f,
    -0.020837f, -0.023926f, -0.026125f, -0.036576f, 0.001720f, -0.056371f, 0.138192f, 0.058110f,
    -0.037355f, -0.123044f, 0.055246f, 0.007183f, 0.049643f, 0.087574f, 0.069827f, -0.072573f,
    -0.114107f, 0.004350f, -0.027078f, -0.011717f, -0.019110f, 0.060663f, -0.118649f, -0.100919f,
    0.112218f, 0.002313f, -0.026961f, 0.013168f, -0.050565f, -0.066307f, -0.006537f, -0.009109f,
    -0.018723f, 0.019482f, 0.100855f, 0.052255f, 0.039323f, 0.039613f, 0.026099f, -0.067265f,
    -0.082280f, -0.078705f, -0.015925f, 0.063739f, -0.087397f, 0.047360f, 0.034740f, 0.031338f,
    0.039373f, 0.016869f, 0.003452f, 0.048839f, 0.043480f, 0.036710f, -0.040118f, -0.056572f,
    0.074370f, 0.018931f, 0.084842f, -0.078434f, 0.005686f, -0.019008f, 0.058640f, 0.040525f,
    -0.134446f, 0.003436f, -0.094972f, 0.042150f, -0.048155f, -0.013565f, -0.012616f, -0.050635f,
    0.089964f, 0.018135f, -0.052285f, 0.057340f, 0.104499f, 0.012802f, -0.136368f, -0.005310f,
    0.091895f, -0.002431f, 0.006205f, 0.022301f, 0.054329f, -0.012247f, 0.052626f, 0.142020f,
    0.072137f, -0.117742f, 0.096873f, -0.032728f, 0.034607f, -0.035734f, -0.039300f, -0.010571f,
    0.064183f, -0.043386f, 0.039377f, 0.073924f, 0.076269f, 0.154373f, -0.077230f, 0.062013f,
    -0.096996f, -0.017401f, 0.040260f, 0.030006f, 0.112496f, 0.011374f, -0.000925f, 0.010566f,
    -0.050069f, 0.019681f, -0.021829f, 0.038879f, -0.050709f, 0.020903f, 0.055045f, 0.011929f,
    -0.013324f, -0.168998f, 0.093041f, -0.085822f, 0.025614f, -0.074875f, 0.266218f, 0.012449f,
    0.028741f, -0.010343f, -0.034883f, 0.076854f, -0.097032f, -0.030938f, 0.184224f, 0.092381f,
    0.063718f, -0.157989f, -0.048960f, 0.066647f, 0.201523f, 0.033815f, -0.030643f, -0.023406f,
    -0.074539f, -0.073965f, 0.027182f, 0.068848f, 0.004518f, 0.077326f, 0.084152f, -0.013851f,
    0.080960f, 0.068481f, 0.016911f, 0.019258f, 0.044749f, 0.011961f, 0.026586f, 0.135063f,
    0.050586f, -0.009703f, -0.021776f, -0.116113f, -0.001433f, -0.092695f, 0.018888f, 0.033710f,
    -0.012340f, -0.048983f, 0.083729f, 0.134914f, 0.035362f, 0.065312f, -0.002275f, -0.011757f,
    -0.052321f, 0.131049f, -0.058664f, 0.130959f, 0.014740f, -0.002425f, 0.069599f, -0.067540f,
    -0.026578f, -0.067554f, -0.040448f, -0.071722f, -0.084321f, -0.054540f, 0.017821f, -0.030482f,
    0.008067f, 0.077600f, -0.018485f, 0.013183f, 0.005480f, -0.057801f, 0.105899f, -0.056822f,
    0.104881f, -0.071829f, -0.094333f, 0.095734f, -0.025129f, -0.037107f, -0.169545f, -0.032628f,
    -0.069919f, -0.008522f, -0.085711f, -0.110504f, -0.020723f, -0.045212f, -0.052276f, -0.052425f,
    0.031860f, -0.000345f, 0.003964f, 0.028029f, 0.068511f, -0.006814f, -0.063525f, 0.000641f,
    -0.107618f, 0.161409f, 0.125522f, 0.077445f, -0.050715f, 0.048150f, -0.000463f, -0.007571f,
    -0.004763f, -0.059410f, 0.040881f, 0.009079f, 0.025960f, 0.019306f, -0.050311f, 0.057912f,
    -0.024231f, 0.011480f, 0.138266f, -0.063093f, -0.082234f, 0.057247f, 0.134224f, 0.089164f,
    -0.020045f, 0.063585f, 0.044366f, 0.029665f, -0.052653f, -0.068314f, 0.175286f, 0.067946f,
    0.165136f, 0.025199f, -0.003794f, 0.025654f, 0.092150f, 0.063425f, 0.026304f, 0.009084f,
    0.016615f, 0.004096f, 0.027905f, 0.025249f, 0.011233f, -0.057671f, -0.005928f, 0.079489f,
    -0.160733f, 0.037622f, -0.029902f, -0.038387f, -0.079623f, 0.045286f, -0.029655f, -0.037782f,
    -0.007538f, -0.114598f, 0.037430f, 0.008816f, -0.039287f, -0.049811f, 0.036438f, 0.074445f,
    0.079882f, 0.025669f, 0.006172f, -0.055467f, -0.049217f, 0.012648f, 0.113609f, 0.098816f,
    0.028371f, 0.059160f, 0.074045f, 0.053810f, 0.138668f, 0.049305f, 0.094573f, -0.011614f,
    -0.055739f, 0.104326f, -0.022185f, 0.024000f, -0.136801f, 0.141076f, -0.165314f, -0.204564f,
    0.026092f, -0.060508f, -0.053365f, 0.066099f, 0.013040f, 0.040000f, 0.068985f, 0.051560f,
    0.075094f, 0.039377f, 0.042421f, -0.051046f, -0.037997f, 0.118806f, 0.012226f, 0.010578f,
    0.025058f, 0.010447f, 0.010984f, -0.056349f, 0.183518f, -0.007577f, -0.085079f, 0.106302f,
    0.052741f, -0.030469f, -0.083808f, -0.010740f, 0.055059f, 0.032287f, 0.144292f, -0.010939f,
